svm_type c_svc
kernel_type rbf
gamma 3.05176e-005
nr_class 3
total_sv 706
rho 0.95727 -1.59769 -0.986709
label 2 3 1
probA -3.68024 -1.50115 -4.78193
probB 0.850853 -0.0177497 -1.27878
nr_sv 94 582 30
SV
26.7720754839959 0 1:0 2:0 3:5 4:249.43 5:5 6:149.0407 7:0 8:0 9:66.2717 10:28.0605 11:21.9446 12:21.7963 13:10.9677 14:1 
21.05898310271752 0 1:0 2:0 3:9 4:137.494 5:5 6:42.7937 7:4 8:198.4987 9:9.7206 10:7.003 11:2.2143 12:9.3976 13:14.4581 14:1 
10.33460965061603 0 1:0 2:0 3:9 4:246.667 5:5 6:184.8582 7:4 8:52.6091 9:100 10:19.2992 11:19.9443 12:21.0077 13:24.607 14:1 
27.87423110937397 0 1:0 2:0 3:8 4:221.508 5:5 6:250.9424 7:3 8:200.4509 9:74.8105 10:25.3101 11:44.1408 12:41.539 13:65.142 14:1 
0.2796373658901784 0 1:0 2:0 3:6 4:219.993 5:4 6:155.5359 7:1 8:0.2398 9:48.4971 10:0 11:100 12:6.5977 13:0.4412 14:1 
3.643245222962152 0 1:0 2:0 3:7 4:90.969 5:3 6:3.4425 7:2 8:0.9804 9:2.4418 10:0 11:0.4159 12:0.5848 13:0 14:1 
1.354953607181934 0 1:0 2:0 3:5 4:8.791 5:5 6:127.4702 7:0 8:0 9:22.6868 10:100 11:3.8159 12:0.6211 13:0.3464 14:1 
13.71214068636033 0 1:0 2:0 3:9 4:237.74 5:5 6:207.746 7:4 8:90.2268 9:100 10:21.0976 11:26.1723 12:30.0428 13:30.4333 14:1 
6.154950812582031 0 1:0 2:0 3:7 4:255.421 5:5 6:208.9163 7:2 8:37.3739 9:100 10:24.356 11:21.5139 12:27.1965 13:35.8499 14:1 
0.079614202801815 0 1:0 2:0 3:8 4:77.239 5:5 6:113.8792 7:3 8:169.5193 9:5.7929 10:24.2601 11:17.278 12:22.5667 13:43.9815 14:1 
0 32 1:0 2:0 3:6 4:0.389 5:4 6:34.9429 7:1 8:0.9421 9:6.3177 10:21.5861 11:0 12:1.7005 13:5.3386 14:1 
3.619227245973382 0 1:0 2:0 3:9 4:204.03 5:5 6:249.0794 7:4 8:234.9169 9:82.5533 10:23.9799 11:32.5319 12:44.2096 13:65.8047 14:1 
6.492706294210111 0 1:0 2:0 3:7 4:342.635 5:3 6:6.1512 7:2 8:0.6105 9:4.8261 10:0 11:0.6715 12:0.6536 13:0 14:1 
0 32 1:0 2:0 3:10 4:9.816 5:5 6:16.1324 7:5 8:122.4299 9:8.0369 10:0.6259 11:1.522 12:1.1934 13:4.7541 14:1 
4.650785480675333 0 1:0 2:1 3:7 4:155.213 5:3 6:28.3709 7:1 8:4.1463 9:16.9684 10:0 11:0 12:1.8876 13:9.5149 14:1 
32 0 1:0 2:0 3:9 4:290.587 5:4 6:6.2488 7:4 8:54.72 9:5.7033 10:0 11:0.1871 12:0.216 13:0.1424 14:1 
25.44116856302104 0 1:0 2:0 3:8 4:249.908 5:5 6:118.5134 7:3 8:81.0827 9:41.3328 10:8.9664 11:9.3494 12:14.2126 13:44.6522 14:1 
0.8150316768809655 0 1:0 2:1 3:8 4:236.181 5:5 6:29.6468 7:2 8:1.5019 9:4.4134 10:0.7611 11:0.8442 12:1.67 13:21.9581 14:1 
0.6246092770489298 0 1:0 2:0 3:7 4:249.521 5:5 6:48.4786 7:2 8:174.6382 9:4.1418 10:37.7435 11:4.1835 12:1.6129 13:0.7969 14:1 
0.0240445558019387 0 1:0 2:0 3:11 4:82.151 5:5 6:115.2309 7:6 8:199.8039 9:10.4074 10:100 11:0.8495 12:1.9654 13:2.0086 14:1 
0.6709213766217662 0 1:0 2:0 3:7 4:174.947 5:5 6:368.7863 7:2 8:107.0074 9:17.0984 10:98.6416 11:83.9715 12:88.6413 13:80.4335 14:1 
2.11032472425968 0 1:0 2:1 3:9 4:130.922 5:5 6:72.3016 7:3 8:266.1629 9:13.2395 10:38.6113 11:1.6835 12:6.5338 13:12.2335 14:1 
27.97716243162956 0 1:0 2:0 3:10 4:57.366 5:4 6:18.6153 7:5 8:111.7434 9:6.8786 10:1.4494 11:0 12:8.7074 13:1.5799 14:1 
26.37800829643004 0 1:0 2:0 3:5 4:244.846 5:5 6:194.4156 7:0 8:0 9:77.606 10:26.6689 11:26.8132 12:33.9239 13:29.4035 14:1 
0.4913443258418644 0 1:0 2:0 3:5 4:215.747 5:3 6:148.2176 7:0 8:0 9:14.7086 10:52.0507 11:0 12:0 13:81.4583 14:1 
0 32 1:0 2:1 3:10 4:5.326 5:3 6:22.6911 7:4 8:179.2287 9:19.628 10:0 11:0 12:1.7422 13:1.3208 14:1 
6.386239135713286 0 1:0 2:0 3:8 4:62.983 5:5 6:7.8733 7:3 8:72.672 9:6.2905 10:0.2219 11:0.2602 12:0.7077 13:0.393 14:1 
1.494927971981948 0 1:0 2:0 3:6 4:281.409 5:5 6:360.6142 7:1 8:6.1482 9:59.566 10:70.1472 11:100 12:80.3741 13:50.5269 14:1 
1.711405994736986 4.263794534384831 1:0 2:0 3:6 4:2.126 5:3 6:173.821 7:1 8:100 9:70.5274 10:0 11:99.9635 12:3.3301 13:0 14:1 
0.4774237566464316 0 1:0 2:0 3:10 4:241.404 5:5 6:109.0425 7:5 8:99.0263 9:2.9649 10:100 11:3.4948 12:1.6977 13:0.8851 14:1 
1.724836420693952 0 1:0 2:0 3:12 4:112.123 5:3 6:117.545 7:7 8:114.2263 9:12.7772 10:0 11:0 12:100 13:4.7678 14:1 
32 0 1:0 2:0 3:5 4:344.634 5:5 6:158.1588 7:0 8:0 9:100 10:1.7474 11:41.1476 12:2.0481 13:13.2157 14:1 
0.5913244513191414 0 1:0 2:0 3:7 4:144.576 5:4 6:110.4722 7:2 8:7.477 9:3.3781 10:0 11:100 12:6.1113 13:0.9828 14:1 
0 32 1:0 2:0 3:7 4:4.834 5:3 6:10.626 7:2 8:30.3136 9:5.8247 10:0 11:0 12:2.4084 13:2.3928 14:1 
21.29870269095199 0 1:0 2:0 3:7 4:75.686 5:5 6:170.0997 7:2 8:16.0672 9:100 10:11.009 11:21.973 12:22.2165 13:14.9013 14:1 
0.6092002489621469 0 1:0 2:0 3:5 4:352.437 5:4 6:74.2335 7:0 8:0 9:7.9843 10:5.8678 11:56.9516 12:3.4298 13:0 14:1 
3.057633850310143 0 1:0 2:1 3:6 4:26.36 5:4 6:113.3061 7:0 8:0 9:100 10:1.7663 11:0 12:9.9838 13:1.556 14:1 
19.38008223342521 0 1:0 2:0 3:10 4:208.538 5:5 6:76.7746 7:5 8:25.198 9:47.2422 10:8.571 11:6.371 12:8.4423 13:6.1481 14:1 
0 4.950603247457948 1:0 2:0 3:5 4:0 5:3 6:118.8575 7:0 8:0 9:15.3924 10:100 11:3.4651 12:0 13:0 14:1 
0.4117820828352595 0 1:0 2:1 3:6 4:281.399 5:3 6:106.0435 7:0 8:0 9:5.5231 10:0 11:100 12:0 13:0.5204 14:1 
0 32 1:0 2:0 3:8 4:3.387 5:3 6:6.3288 7:3 8:1.894 9:3.978 10:1.5008 11:0.85 12:0 13:0 14:1 
12.67961905184587 0 1:0 2:0 3:8 4:272.435 5:4 6:124.02 7:3 8:5.1656 9:100 10:0 11:6.0286 12:5.7732 13:12.2181 14:1 
0 32 1:0 2:1 3:6 4:2.829 5:4 6:54.9477 7:0 8:0 9:36.6388 10:5.5712 11:6.5983 12:6.1394 13:0 14:1 
0 6.30063991671704 1:0 2:0 3:6 4:13.676 5:5 6:186.4156 7:1 8:8.8181 9:7.6767 10:10.6753 11:38.8251 12:56.2019 13:73.0368 14:1 
1.426410003974177 0 1:0 2:1 3:6 4:59.314 5:4 6:265.1135 7:0 8:0 9:61.082 10:41.7367 11:77.1515 12:85.1432 13:0 14:1 
9.091313890249454 0 1:0 2:0 3:9 4:93.407 5:4 6:171.2442 7:4 8:66.1211 9:100 10:24.6641 11:0 12:19.6119 13:26.9683 14:1 
0 8.603213494642604 1:0 2:1 3:7 4:7.895 5:5 6:31.8902 7:1 8:9.2187 9:14.295 10:1.2634 11:2.5885 12:3.502 13:10.2412 14:1 
0 0.5648383281563263 1:0 2:1 3:6 4:19.127 5:5 6:155.5762 7:0 8:0 9:35.8204 10:31.181 11:28.1901 12:51.8527 13:8.532 14:1 
0 32 1:0 2:1 3:7 4:17.03 5:5 6:68.2172 7:1 8:30.2071 9:18.2888 10:5.9341 11:12.2145 12:27.4386 13:4.3412 14:1 
0 25.09363585048418 1:0 2:0 3:10 4:8.635 5:3 6:20.5135 7:5 8:43.2733 9:6.5075 10:0 11:0.531 12:0 13:13.475 14:1 
7.260102098306732 0 1:0 2:0 3:7 4:129.691 5:5 6:44.0922 7:2 8:152.5024 9:15.4533 10:2.2482 11:9.6182 12:3.4667 13:13.3058 14:1 
2.907619334280672 0 1:0 2:1 3:9 4:115.836 5:3 6:5.7638 7:3 8:11.6665 9:3.8103 10:0 11:0.987 12:0.9665 13:0 14:1 
9.116568308276172 0 1:0 2:0 3:5 4:66.1 5:4 6:169.0621 7:0 8:0 9:100 10:0 11:1.9619 12:2.8649 13:64.2354 14:1 
0.7004689749685188 0 1:0 2:1 3:9 4:116.323 5:4 6:18.5514 7:3 8:185.7766 9:8.7046 10:0 11:5.8455 12:2.2187 13:1.7826 14:1 
2.756658794418271 0 1:0 2:0 3:8 4:222.229 5:5 6:128.2419 7:3 8:11.1691 9:14.4241 10:100 11:7.6362 12:3.7585 13:2.4232 14:1 
0 32 1:0 2:0 3:6 4:15.965 5:5 6:121.0813 7:1 8:66.449 9:56.5867 10:14.1297 11:6.8269 12:18.571 13:24.967 14:1 
32 0 1:0 2:0 3:7 4:51.168 5:5 6:117.8082 7:2 8:2.1272 9:100 10:9.9736 11:4.9313 12:2.0864 13:0.8169 14:1 
1.588852095623679 0 1:0 2:0 3:11 4:213.936 5:5 6:112.4084 7:6 8:56.8072 9:6.1119 10:0.9925 11:1.2278 12:100 13:4.0761 14:1 
0.1679933557909704 32 1:0 2:1 3:12 4:13.139 5:3 6:5.166 7:6 8:115.9705 9:3.8366 10:0.8228 11:0 12:0.5066 13:0 14:1 
2.352065377796424 0 1:0 2:1 3:9 4:188.567 5:5 6:52.8432 7:3 8:13.0856 9:8.2464 10:1.7811 11:2.8041 12:17.8618 13:22.1499 14:1 
21.44096424376626 0 1:0 2:0 3:8 4:127.023 5:4 6:5.1636 7:3 8:0.6238 9:4.4447 10:0.39 11:0.1873 12:0 13:0.1415 14:1 
0.5871918293056563 0 1:0 2:0 3:6 4:278.374 5:5 6:137.7698 7:1 8:2.0664 9:100 10:14.667 11:12.5102 12:6.3803 13:4.2123 14:1 
6.386264932467234 32 1:0 2:0 3:6 4:7.94 5:4 6:102.7054 7:1 8:0.2491 9:100 10:1.1038 11:0.8191 12:0 13:0.7824 14:1 
26.43435094907806 0 1:0 2:0 3:5 4:348.684 5:3 6:39.386 7:0 8:0 9:17.1807 10:4.3829 11:0 12:17.8224 13:0 14:1 
1.253153847412926 2.53480026164342 1:0 2:0 3:9 4:13.408 5:5 6:275.8385 7:4 8:283.5741 9:28.8813 10:18.21 11:82.2987 12:88.5974 13:57.851 14:1 
0 4.533488391942815 1:0 2:0 3:9 4:1.412 5:4 6:142.5823 7:4 8:225.3917 9:59.8106 10:5.3536 11:0 12:42.889 13:34.5291 14:1 
0.2559600512831711 0 1:0 2:0 3:6 4:36.589 5:3 6:115.329 7:1 8:12.1771 9:100 10:11.6425 11:3.6865 12:0 13:0 14:1 
0.05100541156841463 0 1:0 2:0 3:7 4:32.559 5:5 6:227.545 7:2 8:117.2232 9:22.8465 10:26.4109 11:40.4856 12:52.6309 13:85.1711 14:1 
0 15.23425596982343 1:0 2:1 3:8 4:21.23 5:5 6:175.8983 7:2 8:101.567 9:74.2186 10:39.429 11:25.5814 12:21.5381 13:15.1312 14:1 
1.131548057598529 0 1:0 2:0 3:8 4:149.904 5:5 6:188.4539 7:3 8:82.9128 9:51.843 10:93.7514 11:25.2556 12:6.4031 13:11.2009 14:1 
0.1937560306930905 23.34957053577639 1:0 2:0 3:6 4:1.951 5:3 6:107.1659 7:1 8:11.0051 9:6.2887 10:0 11:0.8772 12:0 13:100 14:1 
0 23.93762587671836 1:0 2:0 3:7 4:1.448 5:5 6:206.0415 7:2 8:149.0917 9:58.0088 10:23.2334 11:27.4539 12:64.8477 13:32.4978 14:1 
0 32 1:0 2:1 3:7 4:0.342 5:5 6:164.6706 7:1 8:2.863 9:76.773 10:30.6912 11:33.9927 12:15.4508 13:7.7628 14:1 
5.191849197142228 0 1:0 2:0 3:10 4:141.71 5:3 6:101.6301 7:5 8:92.4589 9:51.1158 10:0 11:20.6018 12:29.9125 13:0 14:1 
0 32 1:0 2:1 3:7 4:7.105 5:4 6:28.4682 7:1 8:86.0426 9:13.8779 10:5.9949 11:0 12:5.8002 13:2.7951 14:1 
0 32 1:0 2:0 3:8 4:5.439 5:4 6:54.275 7:3 8:37.1858 9:17.8818 10:20.0933 11:0 12:10.7422 13:5.5578 14:1 
0 32 1:0 2:0 3:11 4:4.985 5:4 6:33.975 7:6 8:228.4082 9:24.776 10:6.9912 11:0 12:1.5496 13:0.6583 14:1 
0 32 1:0 2:0 3:11 4:10.706 5:5 6:19.8092 7:6 8:192.5283 9:7.7577 10:4.0556 11:0.8749 12:4.8395 13:2.2814 14:1 
7.491811072248202 0 1:0 2:0 3:11 4:126.585 5:5 6:21.0537 7:6 8:192.5315 9:10.6831 10:1.244 11:0.2917 12:7.7775 13:1.0573 14:1 
24.0561923135385 0 1:0 2:0 3:10 4:123.708 5:5 6:22.1657 7:5 8:158.1322 9:7.1947 10:4.6361 11:2.1405 12:6.9062 13:1.2882 14:1 
15.202446888095 0 1:0 2:0 3:8 4:58.27 5:4 6:173.9504 7:3 8:57.9057 9:100 10:0 11:26.8307 12:19.4458 13:27.674 14:1 
1.79902680324795 0 1:0 2:1 3:6 4:303.32 5:3 6:117.3345 7:0 8:0 9:29.4294 10:0 11:8.1933 12:79.7118 13:0 14:1 
0.9645865380358633 0 1:0 2:1 3:6 4:237.518 5:4 6:153.5288 7:0 8:0 9:20.9628 10:0 11:24.6007 12:100 13:7.9653 14:1 
0 32 1:0 2:0 3:6 4:2.899 5:4 6:90.381 7:1 8:100 9:39.6987 10:0 11:21.6234 12:7.5892 13:21.4697 14:1 
1.848841994102467 0 1:0 2:0 3:9 4:97.112 5:4 6:133.6532 7:4 8:93.8151 9:100 10:7.8789 11:20.5901 12:0 13:5.1842 14:1 
0 11.01503180223254 1:0 2:0 3:7 4:15.322 5:3 6:122.0936 7:2 8:10.7049 9:100 10:9.5995 11:12.4941 12:0 13:0 14:1 
0 18.88581813911872 1:0 2:0 3:11 4:16.583 5:3 6:8.6093 7:6 8:157.9171 9:5.1906 10:0 11:0 12:2.8302 13:0.5884 14:1 
3.316893222970949 0 1:0 2:1 3:10 4:78.203 5:4 6:28.2279 7:4 8:190.5001 9:9.5816 10:4.6223 11:0 12:1.1869 13:12.8371 14:1 
9.005632009229142 32 1:0 2:1 3:6 4:13.127 5:3 6:127.482 7:0 8:0 9:100 10:0 11:0 12:22.9935 13:4.4885 14:1 
0 20.72405850375608 1:0 2:1 3:12 4:5.178 5:4 6:66.5167 7:7 8:173.2795 9:26.2553 10:10.6445 11:0 12:11.8707 13:17.7463 14:1 
0.01916200930637294 0 1:0 2:1 3:9 4:155.088 5:3 6:114.9913 7:3 8:73.0535 9:85.3708 10:17.0747 11:0 12:12.5458 13:0 14:1 
0 22.42223292568211 1:0 2:0 3:6 4:0.795 5:3 6:33.2021 7:1 8:3.5793 9:25.1483 10:4.2001 11:0 12:0 13:3.8538 14:1 
0 1.54048877981435 1:0 2:1 3:6 4:25.595 5:3 6:135.923 7:0 8:0 9:21.0865 10:0 11:14.8365 12:100 13:0 14:1 
21.98420716607432 0 1:0 2:0 3:5 4:65.983 5:3 6:105.6212 7:0 8:0 9:100 10:2.9117 11:0 12:0 13:2.7096 14:1 
-32 0 1:0 2:1 3:6 4:249.43 5:5 6:149.0407 7:0 8:0 9:66.2717 10:28.0605 11:21.9446 12:21.7963 13:10.9677 14:0 
-0.001798453219048425 0 1:0 2:1 3:11 4:62768.039 5:4 6:19.3264 7:5 8:99.463 9:1.9604 10:0.1117 11:0.0652 12:17.1892 13:0 14:0 
-0.04261032293974487 0.01348118472887971 1:0 2:1 3:7 4:341946.94 5:3 6:20.1747 7:1 8:0.7703 9:18.8766 10:0 11:0.5684 12:0 13:0.7297 14:0 
-32 0 1:0 2:0 3:9 4:137.494 5:5 6:42.7937 7:4 8:198.4987 9:9.7206 10:7.003 11:2.2143 12:9.3976 13:14.4581 14:0 
-0.02765833613438357 0.008825929480928807 1:0 2:1 3:8 4:67068.805 5:4 6:3.6212 7:2 8:27.4824 9:2.0273 10:0.8008 11:0.5291 12:0 13:0.2641 14:0 
-0.02294223489206065 0.007288395361315652 1:0 2:0 3:10 4:45343.734 5:4 6:47.4372 7:5 8:34.0667 9:4.4924 10:40.0388 11:2.0339 12:0 13:0.8721 14:0 
-0.007873832925325482 0.001777269414532712 1:0 2:1 3:10 4:47201.219 5:3 6:10.5855 7:4 8:1.5095 9:10.2044 10:0 11:0.1941 12:0.187 13:0 14:0 
-0.04264791954191349 0.0135288326851204 1:0 2:1 3:6 4:377201.25 5:4 6:104.9321 7:0 8:0 9:100 10:1.6998 11:0.5772 12:2.6551 13:0 14:0 
-0.03597703785190087 0.0108438964657705 1:0 2:1 3:9 4:9760.805 5:5 6:114.4584 7:3 8:0.4778 9:5.6987 10:100 11:5.7244 12:2.1707 13:0.8645 14:0 
-0.0426729772709411 0.01283181678600676 1:0 2:1 3:8 4:158676.39 5:3 6:25.4958 7:2 8:3.1412 9:23.9572 10:0 11:0 12:0.7033 13:0.8353 14:0 
-0.02632706870954598 0.007942306762730615 1:0 2:0 3:9 4:52001.262 5:5 6:62.2392 7:4 8:40.9712 9:21.3558 10:9.6873 11:10.3937 12:9.9273 13:10.8752 14:0 
-32 0 1:0 2:0 3:8 4:221.508 5:5 6:250.9424 7:3 8:200.4509 9:74.8105 10:25.3101 11:44.1408 12:41.539 13:65.142 14:0 
-0.02500001814204877 0.007476303008477736 1:0 2:1 3:10 4:37898.766 5:5 6:23.4934 7:4 8:156.3112 9:4.2722 10:0.9759 11:14.2604 12:3.4491 13:0.5358 14:0 
-0.02792599000790271 0 1:0 2:0 3:9 4:116235.98 5:4 6:0.5534 7:4 8:0.2031 9:0.1644 10:0 11:0.0301 12:0.0525 13:0.3065 14:0 
-0.04201577352359565 0.01346516791912933 1:0 2:1 3:10 4:60361.676 5:4 6:5.1025 7:4 8:104.1678 9:2.6482 10:0.5814 11:0 12:0.844 13:1.0289 14:0 
-0.01682619935525805 0.004822445908079009 1:0 2:0 3:9 4:51284.164 5:5 6:83.3631 7:4 8:65.0716 9:32.4038 10:10.9451 11:13.2067 12:12.5957 13:14.2119 14:0 
-0.002952602094888951 0.0006459937288644801 1:0 2:0 3:9 4:85640.859 5:3 6:20.942 7:4 8:0.4656 9:20.3041 10:0 11:0.1755 12:0.4624 13:0 14:0 
-0.04264318990364863 0.01367499293684854 1:0 2:0 3:8 4:200665.52 5:4 6:6.3538 7:3 8:0.5221 9:4.3086 10:0.3718 11:0 12:0.5476 13:1.1258 14:0 
-0.02647578798970843 0.00852533351685306 1:0 2:0 3:10 4:26998.805 5:5 6:13.5869 7:5 8:58.6624 9:5.1649 10:1.6519 11:0.9866 12:4.0346 13:1.7488 14:0 
-0.04259537975951933 0.01367919148337976 1:0 2:1 3:6 4:450200.53 5:3 6:52.262 7:0 8:0 9:52.1252 10:0.0727 11:0 12:0 13:0.064 14:0 
-0.03001388193472675 0.00978323311182239 1:0 2:1 3:7 4:7148.609 5:4 6:130.8141 7:1 8:0.2666 9:2.7685 10:27.2506 11:100 12:0.795 13:0 14:0 
-0.04269894713274181 0.0136690566445557 1:0 2:1 3:7 4:224467.25 5:5 6:7.6423 7:1 8:1.8633 9:4.1796 10:1.0851 11:0.1875 12:1.0565 13:1.1337 14:0 
-0.03021200122697265 0.009362445983974031 1:0 2:1 3:8 4:185085.77 5:3 6:17.5227 7:3 8:0.7149 9:16.7308 10:0.4115 11:0 12:0.3803 13:0 14:0 
-0.0426639894620382 0.01367864012817088 1:0 2:0 3:7 4:389712.59 5:3 6:7.8806 7:2 8:0.7825 9:5.2249 10:0 11:2.1031 12:0 13:0.5526 14:0 
-0.04256436127171204 0.01355231301409399 1:0 2:1 3:14 4:65097.832 5:4 6:1.9253 7:8 8:215.8255 9:1.5305 10:0 11:0.1413 12:0.1025 13:0.151 14:0 
-0 0.009162672823771756 1:0 2:0 3:9 4:116236.37 5:3 6:3.823 7:4 8:3.0682 9:3.3265 10:0 11:0 12:0.1742 13:0.3223 14:0 
-0.04247976062287673 0.01347847704833866 1:0 2:0 3:9 4:71617.391 5:5 6:18.4287 7:4 8:122.8625 9:7.9958 10:1.7064 11:2.3535 12:0.6724 13:5.7006 14:0 
-0.02629585941442331 0.007915025553890807 1:0 2:1 3:7 4:162219.55 5:3 6:40.0443 7:1 8:0.0961 9:33.5078 10:1.0695 11:0 12:5.467 13:0 14:0 
-32 0 1:0 2:0 3:9 4:177.922 5:5 6:104.4881 7:4 8:76.4982 9:41.8164 10:10.5402 11:13.8055 12:18.0914 13:20.2346 14:0 
-0.04314201551472663 0.01367215060223836 1:0 2:1 3:6 4:332696.5 5:3 6:81.8263 7:0 8:0 9:80.4341 10:0 11:0 12:0.4262 13:0.966 14:0 
-0.01823400448862145 0.006082199965792734 1:0 2:1 3:10 4:108682.07 5:3 6:4.5696 7:4 8:2.314 9:3.1471 10:0.9732 11:0 12:0 13:0.4493 14:0 
-0.04265520084635777 0.01276596869296387 1:0 2:0 3:8 4:187816.73 5:3 6:8.6239 7:3 8:0.6473 9:7.9451 10:0 11:0 12:0.3048 13:0.374 14:0 
-0.02170798936466669 0.006909024606472863 1:0 2:0 3:7 4:31862.236 5:4 6:107.3322 7:2 8:12.6824 9:100 10:0 11:1.2988 12:2.6047 13:3.4287 14:0 
-0.04264173585217707 0.01366023707189928 1:0 2:1 3:6 4:442693.28 5:3 6:59.0418 7:0 8:0 9:58.7635 10:0 11:0.095 12:0.1834 13:0 14:0 
-0.04264089003349625 0.01365811566017638 1:0 2:1 3:6 4:506149.91 5:4 6:62.9863 7:0 8:0 9:61.8586 10:0.4483 11:0.3242 12:0.3552 13:0 14:0 
-0.04261550484224536 0.01362352604497102 1:0 2:1 3:6 4:172868.31 5:5 6:30.0139 7:0 8:0 9:4.4484 10:10.9365 11:5.634 12:8.3341 13:0.661 14:0 
-0.02283802638157695 0.007241182056431095 1:0 2:1 3:6 4:6851.328 5:5 6:115.6563 7:0 8:0 9:15.007 10:19.3349 11:20.6312 12:34.8708 13:25.8123 14:0 
-0.04261446987906375 0.01362147476533177 1:0 2:1 3:6 4:375435.31 5:3 6:107.762 7:0 8:0 9:1.7233 10:0 11:100 12:0 13:6.0388 14:0 
-0.01106956007966633 0.004695038361490746 1:0 2:0 3:10 4:44923.762 5:5 6:114.41 7:5 8:103.9712 9:7.1773 10:100 11:5.8786 12:0.7019 13:0.6523 14:0 
-0.01385980792516078 0.001062300187853082 1:0 2:1 3:6 4:9456.283 5:4 6:116.468 7:0 8:0 9:13.0561 10:100 11:1.176 12:0 13:2.2359 14:0 
-0.04261310728635892 0.01315635061994802 1:0 2:1 3:6 4:701102.25 5:3 6:58.081 7:0 8:0 9:57.782 10:0.1651 11:0.1338 12:0 13:0 14:0 
-0.02628952956994509 0.007912606534741729 1:0 2:1 3:6 4:412877.81 5:3 6:16.4797 7:0 8:0 9:12.5199 10:1.0346 11:0 12:0 13:2.9252 14:0 
-0.02900793658809209 0.008840103940242983 1:0 2:1 3:11 4:41693.273 5:4 6:13.4813 7:5 8:95.2561 9:6.6449 10:1.9804 11:2.2878 12:2.5682 13:0 14:0 
-0.01085895850317675 0.003435052945809147 1:0 2:0 3:9 4:49240.398 5:5 6:80.3357 7:4 8:153.207 9:20.6793 10:20.02 11:8.162 12:14.1055 13:17.369 14:0 
-0.0208622770582658 0.008681692569947108 1:0 2:0 3:9 4:49595.055 5:5 6:70.5139 7:4 8:42.6622 9:26.0209 10:6.4109 11:10.0765 12:15.4354 13:12.5703 14:0 
-0.02849736418793336 0.008972601995732115 1:0 2:1 3:9 4:56899.852 5:3 6:16.0442 7:4 8:3.8335 9:13.2648 10:0.7147 11:0 12:2.0648 13:0 14:0 
-0.01400904789703999 0.004361985259484724 1:0 2:0 3:9 4:56824.238 5:5 6:70.7059 7:4 8:51.5397 9:19.912 10:6.1887 11:9.3013 12:19.3416 13:15.9622 14:0 
-0.03196258911601918 0.009976454373087295 1:0 2:0 3:9 4:57435.438 5:3 6:16.2295 7:4 8:2.3416 9:14.4233 10:0.9757 11:0.8305 12:0 13:0 14:0 
-0.04264658515570219 0.01335568841063001 1:0 2:1 3:6 4:676622.13 5:3 6:5.5519 7:0 8:0 9:5.1237 10:0.1626 11:0.2656 12:0 13:0 14:0 
-0.03605477630614129 0.01133140490863997 1:0 2:1 3:10 4:62767.848 5:4 6:82.1983 7:5 8:254.4469 9:6.9033 10:68.7695 11:0 12:3.3114 13:3.2141 14:0 
-0.04266123765514246 0.01362469263954308 1:0 2:1 3:6 4:337531 5:3 6:62.6929 7:0 8:0 9:57.1814 10:2.277 11:0 12:3.2344 13:0 14:0 
-0.03341901498513566 0.01062434471539658 1:0 2:0 3:7 4:54764.773 5:4 6:113.5413 7:2 8:74.9946 9:29.2285 10:0 11:16.4227 12:17.6331 13:50.2569 14:0 
-0.04263685467965345 0.01324750475919762 1:0 2:1 3:6 4:218266.69 5:5 6:301.9691 7:0 8:0 9:88.9601 10:41.1768 11:47.3513 12:50.9242 13:73.5567 14:0 
-0.04274497095012728 0.01338728818780505 1:0 2:0 3:7 4:64213.883 5:5 6:52.3381 7:2 8:16.3602 9:19.0143 10:6.9027 11:5.4616 12:8.1446 13:12.8149 14:0 
-0.02499477420508675 0.007931824798516351 1:0 2:1 3:9 4:25426.625 5:5 6:33.0839 7:3 8:3.7932 9:8.414 10:22.0693 11:1.2665 12:0.7853 13:0.5488 14:0 
-0.02957569649918453 0.008985787599407703 1:0 2:1 3:8 4:43542.426 5:3 6:20.8334 7:2 8:3.5397 9:20.3466 10:0 11:0.2607 12:0 13:0.2261 14:0 
-0.01888594317229389 0.006188210848373636 1:0 2:0 3:8 4:12572.965 5:3 6:4.302 7:3 8:101.9083 9:3.0617 10:0.7511 11:0 12:0 13:0.4892 14:0 
-0.02611527985915806 0.008088631950018244 1:0 2:0 3:7 4:27629.256 5:4 6:20.5813 7:2 8:0.9502 9:16.9681 10:0 11:0.64 12:1.5245 13:1.4487 14:0 
-0.03217476008829312 0.0096244989134526 1:0 2:0 3:8 4:14172.044 5:3 6:4.9036 7:3 8:0.6301 9:2.8373 10:0.304 11:0 12:1.7623 13:0 14:0 
-0.03530918102272079 0.0109833919656697 1:0 2:0 3:8 4:6031.174 5:3 6:30.7442 7:3 8:6.7597 9:23.2069 10:2.3243 11:5.2129 12:0 13:0 14:0 
-0.04263948552262925 0.01325070256481359 1:0 2:0 3:8 4:167998.22 5:3 6:8.8426 7:3 8:1.7859 9:4.5662 10:2.8199 11:1.4565 12:0 13:0 14:0 
-0.02659103906577214 0.01011139835547429 1:0 2:0 3:8 4:9152.721 5:4 6:32.0327 7:3 8:15.8118 9:19.9688 10:0 11:3.0445 12:3.0773 13:5.9422 14:0 
-0.01079231869346484 0.003160324384143145 1:0 2:1 3:13 4:108530.2 5:5 6:21.6065 7:7 8:106.4067 9:11.5654 10:5.6434 11:1.4116 12:1.3079 13:1.6782 14:0 
-0.02882824431008213 0.00880129809980883 1:0 2:0 3:8 4:302915.5 5:3 6:17.4816 7:3 8:5.381 9:5.4347 10:0 11:0 12:0.6563 13:11.3906 14:0 
-0.03485554871027263 0.01057312613014733 1:0 2:0 3:7 4:29327.08 5:3 6:26.4217 7:2 8:2.3246 9:19.9485 10:0 11:3.9123 12:2.5609 13:0 14:0 
-0.04295183214417603 0.01352242818069693 1:0 2:1 3:6 4:381579.72 5:3 6:112.1259 7:0 8:0 9:100 10:6.4086 11:0 12:5.7173 13:0 14:0 
-0.04271966258733634 0.01325317508752555 1:0 2:0 3:9 4:300503.28 5:5 6:122.4034 7:4 8:48.7197 9:9.7613 10:1.5614 11:3.3876 12:7.6931 13:100 14:0 
-0.03151875725888865 0.008628700089193196 1:0 2:0 3:9 4:61641.91 5:3 6:52.9365 7:4 8:123.5801 9:25.1717 10:0 11:3.3769 12:0 13:24.3879 14:0 
-0.0005143082558692891 0 1:0 2:0 3:9 4:13289.693 5:5 6:33.4516 7:4 8:3.7142 9:5.2205 10:23.7682 11:1.9974 12:1.1646 13:1.301 14:0 
-0.02442940471751933 0.007667422987067426 1:0 2:0 3:7 4:15388.065 5:3 6:16.393 7:2 8:23.0898 9:9.93 10:0 11:0 12:0.7776 13:5.6853 14:0 
-0.04249902986272186 0.01320477951064464 1:0 2:1 3:7 4:206209.84 5:3 6:4.4915 7:1 8:0.4111 9:1.9966 10:0.5931 11:0 12:1.9019 13:0 14:0 
-0.0393131204597193 0.01224866497560645 1:0 2:0 3:8 4:78178.336 5:5 6:99.0132 7:3 8:53.0872 9:10.2617 10:6.9754 11:17.2187 12:31.7056 13:32.8518 14:0 
-0.04267168318927955 0.01324358120255048 1:0 2:1 3:6 4:631865.75 5:3 6:14.859 7:0 8:0 9:11.9549 10:2.4113 11:0.4928 12:0 13:0 14:0 
-0.04023086813464739 0.01252091738434563 1:0 2:0 3:10 4:52482.766 5:4 6:62.5131 7:5 8:152.9841 9:26.3163 10:0 11:8.109 12:12.9835 13:15.1044 14:0 
-0.03441674302869846 0.01093867903064938 1:0 2:1 3:11 4:52862.039 5:3 6:6.9956 7:5 8:4.5414 9:5.9986 10:0 11:0.5357 12:0.4613 13:0 14:0 
-0.00978448642572992 0.003818501967776664 1:0 2:1 3:7 4:14833.028 5:5 6:69.4338 7:1 8:0.951 9:50.9345 10:2.8093 11:6.6091 12:6.4337 13:2.6472 14:0 
-0.02142717550677142 0.006472119261436427 1:0 2:1 3:9 4:66914.469 5:5 6:52.7189 7:4 8:121.6499 9:19.3218 10:5.5199 11:4.7263 12:16.0184 13:7.1325 14:0 
-0.02940282180186274 0.008399635871226769 1:0 2:1 3:10 4:81125.586 5:4 6:19.5174 7:4 8:3.255 9:14.7467 10:0 11:0.8169 12:2.1431 13:1.8107 14:0 
-0.03820670915798562 0.01177485761328262 1:0 2:0 3:8 4:16576.354 5:4 6:31.7924 7:3 8:5.1214 9:23.0393 10:1.2934 11:5.773 12:1.6867 13:0 14:0 
-0.02063684181306019 0.007015019961211955 1:0 2:0 3:8 4:3559.112 5:4 6:3.5776 7:3 8:1.0202 9:2.3372 10:0.1501 11:0.9459 12:0 13:0.1444 14:0 
-0.01351702523761496 0.004773296146700351 1:0 2:0 3:9 4:9604.692 5:4 6:30.2888 7:4 8:13.2021 9:9.7284 10:14.3843 11:5.7593 12:0 13:0.4169 14:0 
-0.02076006639039752 0.006648724017288284 1:0 2:0 3:9 4:8227.873 5:5 6:12.0298 7:4 8:2.1268 9:6.4543 10:0.482 11:1.7854 12:2.4953 13:0.8128 14:0 
-0.02893893069637415 0.008065318470648938 1:0 2:0 3:7 4:109125.45 5:4 6:6.1905 7:2 8:0.2209 9:3.1781 10:0.6762 11:1.6562 12:0.68 13:0 14:0 
-0.01845131768749648 0.005221980050661311 1:0 2:1 3:9 4:44221.063 5:4 6:28.6844 7:3 8:6.7742 9:18.1837 10:0 11:2.4441 12:6.0726 13:1.984 14:0 
-0.02235596415695917 0.006851500486201423 1:0 2:0 3:9 4:4729.969 5:5 6:71.6787 7:4 8:9.1682 9:5.2836 10:62.9937 11:2.1149 12:0.5427 13:0.7437 14:0 
-0.008206525740466313 0.001991292691743807 1:0 2:1 3:8 4:53026.27 5:4 6:11.4728 7:3 8:1.7865 9:8.3792 10:1.1538 11:0.8645 12:1.0753 13:0 14:0 
-0.01913175587976306 0.005542061700340779 1:0 2:0 3:11 4:42679.684 5:5 6:14.3138 7:6 8:65.6712 9:7.0602 10:1.2062 11:1.522 12:0.7421 13:3.7833 14:0 
-0.02315553593902844 0.006816510838295191 1:0 2:0 3:6 4:325427.56 5:3 6:13.7676 7:1 8:0.5495 9:12.0284 10:0.7347 11:1.0044 12:0 13:0 14:0 
-0.04266660893787366 0.01324053097717926 1:0 2:1 3:6 4:132270.52 5:3 6:102.7762 7:0 8:0 9:95.3212 10:0 11:2.0877 12:5.3673 13:0 14:0 
-0.04268242894379898 0.01373302765640677 1:0 2:1 3:6 4:688548.25 5:3 6:105.8108 7:0 8:0 9:88.0678 10:0 11:17.0536 12:0 13:0.6894 14:0 
-0.01038116613115246 0.006049949121419651 1:0 2:1 3:8 4:9494.886 5:5 6:129.1896 7:2 8:3.9649 9:17.7965 10:100 11:4.4151 12:4.6854 13:2.2925 14:0 
-0.02195934232015588 0.007002066485657523 1:0 2:0 3:9 4:38591.078 5:4 6:6.2488 7:4 8:51.3952 9:5.7033 10:0 11:0.1871 12:0.216 13:0.1424 14:0 
-0.04269915523276274 0.01329040541927679 1:0 2:1 3:10 4:123421.95 5:4 6:26.4751 7:4 8:14.8015 9:15.0611 10:3.9875 11:1.4591 12:5.9673 13:0 14:0 
-0.03483644041534618 0.01106572325163827 1:0 2:0 3:9 4:62230.609 5:5 6:39.9465 7:4 8:131.0139 9:8.4729 10:2.5187 11:5.8129 12:20.7353 13:2.4067 14:0 
-0.01820972005017016 0.005544022055991897 1:0 2:1 3:7 4:12697.844 5:3 6:11.2825 7:1 8:0.2136 9:9.642 10:1.2954 11:0 12:0.3451 13:0 14:0 
-0.008286625926438326 0.002694892204410548 1:0 2:1 3:8 4:4864.973 5:4 6:61.8445 7:3 8:13.2709 9:14.564 10:1.6998 11:0 12:43.9791 13:1.6016 14:0 
-0.02743759505445725 0.008383755191673739 1:0 2:0 3:10 4:50143.32 5:5 6:113.3875 7:5 8:52.023 9:4.7005 10:100 11:3.8136 12:4.3498 13:0.5237 14:0 
-0.01912084898645501 0.005795059608583788 1:0 2:0 3:7 4:44675.551 5:4 6:17.4671 7:2 8:5.0138 9:9.8626 10:1.7905 11:2.4809 12:0 13:3.3331 14:0 
-0 0.005958142155376575 1:0 2:1 3:9 4:637.191 5:5 6:60.5946 7:3 8:24.7052 9:9.3322 10:8.3871 11:10.1741 12:13.577 13:19.1243 14:0 
-0.04269853777237376 0.01353783405365244 1:0 2:0 3:8 4:94393.719 5:3 6:7.211 7:3 8:54.7293 9:4.3839 10:0 11:1.5134 12:1.3136 13:0 14:0 
-0.04272897900342659 0.01347248292698844 1:0 2:0 3:6 4:141568.31 5:5 6:70.7848 7:1 8:0.2701 9:63.2852 10:4.9003 11:1.173 12:0.4537 13:0.9726 14:0 
-0.03589186561106211 0.0107564572121428 1:0 2:1 3:6 4:15098.439 5:4 6:103.7559 7:0 8:0 9:100 10:0 11:1.6801 12:1.0437 13:1.0322 14:0 
-0.04240537415871449 0.01354895508164805 1:0 2:1 3:6 4:371362.94 5:4 6:95.6597 7:0 8:0 9:80.2819 10:4.0491 11:4.3277 12:7.0011 13:0 14:0 
-32 0 1:0 2:1 3:6 4:67.547 5:5 6:163.1137 7:0 8:0 9:100 10:22.1155 11:7.4324 12:16.9926 13:16.5732 14:0 
-0.02125890655005322 0.002439510391932409 1:0 2:0 3:8 4:103257.95 5:3 6:39.986 7:3 8:6.6727 9:32.7016 10:1.9321 11:0 12:5.3522 13:0 14:0 
-0.01762798538138 0.007031427016723503 1:0 2:0 3:10 4:57274.527 5:5 6:59.975 7:5 8:104.024 9:34.3506 10:13.019 11:5.6546 12:3.5356 13:3.4152 14:0 
-0.02766507431994014 0.00868538238730332 1:0 2:0 3:9 4:49878.688 5:5 6:96.95 7:4 8:169.759 9:34.0051 10:3.0256 11:13.301 12:14.1172 13:32.5011 14:0 
-0.02160805240778679 0.007924134257320664 1:0 2:0 3:8 4:14373.345 5:3 6:56.2472 7:3 8:7.7002 9:53.2659 10:0 11:1.767 12:0 13:1.2143 14:0 
-0.04250186871528544 0.01372726163116395 1:0 2:1 3:6 4:391223.75 5:5 6:3.5783 7:0 8:0 9:3.0455 10:0.1301 11:0.185 12:0.1022 13:0.1154 14:0 
-0.04272558117430902 0.01372464335117901 1:0 2:1 3:6 4:222034.58 5:3 6:106.2765 7:0 8:0 9:71.689 10:0 11:0 12:33.8747 13:0.7127 14:0 
-0.03935552268090864 0.0122142773550647 1:0 2:1 3:6 4:188340.97 5:3 6:80.2166 7:0 8:0 9:19.8752 10:51.9785 11:8.3629 12:0 13:0 14:0 
-0.03766145645871133 0.01194224225275636 1:0 2:0 3:11 4:4311.054 5:4 6:20.2602 7:6 8:16.0377 9:10.6728 10:0 11:3.2783 12:1.6776 13:4.6316 14:0 
-0.04238847983192007 0.01371666929844273 1:0 2:1 3:6 4:437045.69 5:4 6:39.4588 7:0 8:0 9:13.7889 10:0.7746 11:0.3485 12:0 13:24.5468 14:0 
-0.01780102017006436 0.005143543799711043 1:0 2:0 3:8 4:147578.67 5:3 6:10.6483 7:3 8:0.2409 9:9.1248 10:0.3635 11:1.16 12:0 13:0 14:0 
-0.04271727229095468 0.01341753456671824 1:0 2:1 3:10 4:24368.795 5:3 6:104.4144 7:4 8:28.4493 9:93.7792 10:0 11:0 12:1.9132 13:8.7221 14:0 
-0.04259939172975358 0.01328869934189592 1:0 2:1 3:9 4:304274.66 5:5 6:18.9365 7:3 8:4.2771 9:8.9173 10:1.3189 11:5.8854 12:1.4916 13:1.3234 14:0 
-0.009503624189250437 0.002217286615763925 1:0 2:1 3:9 4:5148.11 5:5 6:101.0765 7:4 8:71.0088 9:20.4169 10:15.1428 11:23.2372 12:17.2005 13:25.0791 14:0 
-0.02408548677023276 0.007472362513548825 1:0 2:0 3:10 4:53059.48 5:4 6:28.2452 7:5 8:139.9475 9:7.9127 10:2.0168 11:0 12:8.9664 13:9.3494 14:0 
-0.03391023273416138 0.01071822318680837 1:0 2:0 3:8 4:59881.531 5:5 6:58.5779 7:3 8:147.9028 9:7.2389 10:5.1062 11:8.1247 12:11.168 13:26.9401 14:0 
-0.02081505376271209 0.006275897596060176 1:0 2:0 3:8 4:54181.418 5:5 6:40.0947 7:3 8:27.2546 9:13.6453 10:5.7433 11:2.6054 12:6.2081 13:11.8926 14:0 
-0.02316666918036536 0.006783839229770716 1:0 2:1 3:9 4:59211.855 5:3 6:19.4415 7:3 8:74.7274 9:8.8724 10:0 11:6.0419 12:4.5272 13:0 14:0 
-0.03567624061406849 0.01127997728320851 1:0 2:0 3:8 4:57840.691 5:5 6:49.3517 7:3 8:192.8347 9:3.3786 10:40.2094 11:2.92 12:2.233 13:0.6107 14:0 
-0.04259820587842994 0.01342298264817837 1:0 2:1 3:8 4:210605.11 5:3 6:10.5454 7:2 8:0.1888 9:3.4515 10:3.9617 11:3.1322 12:0 13:0 14:0 
-0.02668158233611125 0.007797946807906928 1:0 2:0 3:8 4:38620.137 5:5 6:72.338 7:3 8:111.4215 9:9.6204 10:1.4744 11:2.9633 12:1.67 13:56.61 14:0 
-0.04241259734724917 0.01370277113011847 1:0 2:0 3:8 4:314730.63 5:3 6:5.6708 7:3 8:1.0883 9:4.6965 10:0 11:0 12:0.351 13:0.6233 14:0 
-0.02456161896064436 0.007508473724214416 1:0 2:0 3:8 4:63116.23 5:5 6:80.7145 7:3 8:55.8236 9:31.7142 10:18.1114 11:17.1214 12:4.1482 13:9.6194 14:0 
-0.03961842138557058 0.01211250087711568 1:0 2:0 3:6 4:29006.057 5:5 6:39.922 7:1 8:2.1687 9:19.1852 10:1.5158 11:4.4302 12:1.0018 13:13.7889 14:0 
-0.04240978162533582 0.01364179161640994 1:0 2:1 3:6 4:694523.94 5:4 6:97.0077 7:0 8:0 9:95.3557 10:0.9186 11:0 12:0.3078 13:0.4256 14:0 
-0.04280485891737246 0.01364139649842694 1:0 2:0 3:7 4:275955.41 5:3 6:6.8987 7:2 8:2.3129 9:4.1835 10:0 11:0 12:0.5647 13:2.1505 14:0 
-0.02496920632269983 0.007562954931732539 1:0 2:0 3:8 4:26171.43 5:4 6:113.9049 7:3 8:28.6514 9:6.5889 10:2.1221 11:0 12:5.1939 13:100 14:0 
-0.03243557011495662 0.01024136483590199 1:0 2:0 3:8 4:5692.3 5:4 6:96.6735 7:3 8:5.4256 9:81.5692 10:0 11:8.8391 12:3.3625 13:2.9026 14:0 
-0.04241706656553679 0.0136380458993724 1:0 2:1 3:6 4:251341.73 5:4 6:117.1798 7:0 8:0 9:100 10:0 11:7.8497 12:2.7633 13:6.5667 14:0 
-0.01865462433950517 0.005077092906961289 1:0 2:1 3:7 4:7076.547 5:4 6:53.5237 7:1 8:0.7673 9:12.6519 10:18.7825 11:5.8981 12:16.1911 13:0 14:0 
-0.04277892643926512 0.01340988194780918 1:0 2:0 3:10 4:56049.441 5:5 6:25.7005 7:5 8:99.2044 9:5.7229 10:2.3839 11:4.3685 12:7.2262 13:5.9989 14:0 
-0.02964106018327728 0.00936587362305813 1:0 2:0 3:11 4:49105.867 5:5 6:120.5271 7:6 8:199.8039 9:15.1114 10:100 11:1.6392 12:1.8251 13:1.9514 14:0 
-0.02577952544086959 0.008335493984044207 1:0 2:1 3:9 4:4792.097 5:5 6:205.6951 7:3 8:1.1057 9:3.9788 10:46.9118 11:47.0746 12:55.3254 13:52.4045 14:0 
-0.01974384455483361 0.005780760031481978 1:0 2:0 3:9 4:59389.656 5:5 6:48.4126 7:4 8:103.5353 9:9.1051 10:3.7948 11:5.8713 12:12.4531 13:17.1883 14:0 
-0.02315553593902789 0.007398583985895675 1:0 2:1 3:9 4:325488.19 5:3 6:17.9856 7:3 8:38.1597 9:16.5704 10:0 11:0.671 12:0.7442 13:0 14:0 
-0.04274381793001347 0.01367261557763766 1:0 2:1 3:6 4:292596.19 5:4 6:48.2181 7:0 8:0 9:44.4035 10:0 11:1.3084 12:1.252 13:1.2543 14:0 
-0 0.0009470635765525207 1:0 2:1 3:10 4:15517.733 5:4 6:107.0736 7:4 8:29.7746 9:63.9415 10:3.2803 11:8.7106 12:31.1413 13:0 14:0 
-0.04250010615817018 0.01338932698640372 1:0 2:1 3:6 4:344583.63 5:3 6:100.5216 7:0 8:0 9:100 10:0 11:0 12:0.3949 13:0.1267 14:0 
-0.02610001745884749 0.008472998997920311 1:0 2:0 3:7 4:154474.55 5:4 6:168.3585 7:2 8:2.8001 9:39.9352 10:100 11:22.3865 12:6.0369 13:0 14:0 
-0.04206264508975971 0.01330196119334959 1:0 2:0 3:8 4:10983.177 5:3 6:12.3981 7:3 8:54.1248 9:7.5776 10:0 11:0.5822 12:4.2382 13:0 14:0 
-0.03159893251409818 0.01058112582679249 1:0 2:1 3:8 4:30171 5:4 6:34.5274 7:2 8:61.3004 9:8.0124 10:0 11:2.1421 12:3.1407 13:21.2323 14:0 
-0.02930492819727653 0.008809516735313215 1:0 2:0 3:8 4:27982.402 5:3 6:68.0482 7:3 8:28.7713 9:61.8115 10:0 11:3.556 12:2.6807 13:0 14:0 
-0.03452146723352356 0.01070096986547753 1:0 2:0 3:9 4:1331.825 5:4 6:55.943 7:4 8:5.2839 9:7.888 10:0 11:4.013 12:17.5975 13:26.4445 14:0 
-0.01758012229900874 0.005189078389088525 1:0 2:0 3:9 4:8626.864 5:5 6:72.3016 7:4 8:127.9982 9:13.2395 10:38.6113 11:1.6835 12:6.5338 13:12.2335 14:0 
-0.0121125877214002 0.002430012565055262 1:0 2:0 3:8 4:9203.238 5:4 6:72.6935 7:3 8:11.3967 9:60.8635 10:0 11:4.1053 12:3.5157 13:4.2089 14:0 
-0.03972104481942507 0.01279775809965578 1:0 2:1 3:6 4:68639.164 5:3 6:88.0543 7:0 8:0 9:66.1134 10:0 11:1.7196 12:20.2212 13:0 14:0 
-0.04221740353465753 0.01367832647656497 1:0 2:1 3:11 4:113202.88 5:5 6:15.7667 7:5 8:168.7389 9:7.9278 10:1.0719 11:1.9518 12:4.3615 13:0.4537 14:0 
-0.02008772876806075 0.006959895573745621 1:0 2:0 3:10 4:51482.551 5:5 6:48.5226 7:5 8:96.4538 9:10.3595 10:0.9321 11:10.4847 12:17.7564 13:8.9899 14:0 
-32 6.489162926549642 1:0 2:0 3:10 4:57.366 5:4 6:18.6153 7:5 8:111.7434 9:6.8786 10:1.4494 11:0 12:8.7074 13:1.5799 14:0 
-0.03323859462260777 0.01086844661303743 1:0 2:1 3:8 4:10592.081 5:4 6:41.0194 7:2 8:4.8659 9:33.2963 10:2.1257 11:3.0343 12:2.563 13:0 14:0 
-0.02508464961334478 0.008070212335054505 1:0 2:1 3:11 4:85589.813 5:5 6:36.6544 7:5 8:161.5149 9:8.8356 10:3.4553 11:5.6118 12:17.2589 13:1.4929 14:0 
-32 0 1:0 2:1 3:6 4:244.846 5:5 6:194.4156 7:0 8:0 9:77.606 10:26.6689 11:26.8132 12:33.9239 13:29.4035 14:0 
-0.04271678733563139 0.01367246140668443 1:0 2:1 3:10 4:83218.148 5:5 6:54.3822 7:4 8:174.6913 9:28.3399 10:5.0271 11:8.7686 12:8.9084 13:3.3382 14:0 
-0.04238407434086788 0.01367137010517938 1:0 2:1 3:6 4:642294.56 5:3 6:85.4509 7:0 8:0 9:81.4583 10:3.1424 11:0.8502 12:0 13:0 14:0 
-0.01687979673390083 0.005121686682490495 1:0 2:0 3:9 4:5491.774 5:3 6:70.0127 7:4 8:36.1502 9:25.9571 10:5.3324 11:38.7232 12:0 13:0 14:0 
-0.02326011967272878 0.006922530825312717 1:0 2:1 3:11 4:47339.879 5:5 6:119.8886 7:5 8:76.7708 9:17.7927 10:28.3922 11:12.1095 12:46.2404 13:15.3537 14:0 
-0.04214301993856973 0.01340588728533132 1:0 2:0 3:9 4:46657.809 5:5 6:61.1347 7:4 8:32.9101 9:37.2339 10:9.6562 11:1.2522 12:6.138 13:6.8544 14:0 
-0.02767761770614988 0.008695772335969231 1:0 2:0 3:7 4:42974.52 5:3 6:16.4075 7:2 8:0.8713 9:13.3837 10:0 11:1.2372 12:0 13:1.7866 14:0 
-0.01699667362836722 0.003879537987914093 1:0 2:0 3:11 4:44994.953 5:5 6:108.2027 7:6 8:72.4694 9:3.3113 10:100 11:3.7131 12:0.9507 13:0.2275 14:0 
-0.02445883737747327 0.007419523287686653 1:0 2:0 3:9 4:51713.98 5:3 6:8.5185 7:4 8:9.2746 9:6.7622 10:0 11:0 12:1.1661 13:0.5902 14:0 
-0.01780676578544388 0.004537155119711256 1:0 2:0 3:9 4:13460.716 5:4 6:8.7197 7:4 8:3.7521 9:4.3429 10:0 11:1.413 12:2.2839 13:0.68 14:0 
-0.01337785532246043 0.004743932789589178 1:0 2:0 3:11 4:51026.34 5:4 6:22.3257 7:6 8:116.0747 9:18.5241 10:1.0223 11:0 12:1.5456 13:1.2338 14:0 
-0.04237178101493633 0.01367261557808253 1:0 2:1 3:6 4:805980.31 5:3 6:70.5875 7:0 8:0 9:69.3089 10:0.5281 11:0.7505 12:0 13:0 14:0 
-0.04269450433723621 0.01342262222196944 1:0 2:1 3:9 4:1994.255 5:5 6:11.0701 7:3 8:1.9134 9:5.8903 10:1.3865 11:0.7408 12:0.5258 13:2.5267 14:0 
-0.03473812899355076 0.01120035152900926 1:0 2:0 3:8 4:36239.285 5:5 6:7.8733 7:3 8:126.7725 9:6.2905 10:0.2219 11:0.2602 12:0.7077 13:0.393 14:0 
-0.006145724797730758 0 1:0 2:0 3:11 4:43802.543 5:4 6:70.2205 7:6 8:66.6089 9:31.5859 10:2.774 11:0 12:1.4251 13:34.4354 14:0 
-0.0177988114046494 0.003635904927210165 1:0 2:0 3:9 4:57247.891 5:3 6:58.1067 7:4 8:37.9605 9:31.3113 10:0 11:22.6157 12:4.1797 13:0 14:0 
-0.02196459819093686 0.006491816766331774 1:0 2:1 3:6 4:32620.16 5:3 6:102.8966 7:0 8:0 9:100 10:0 11:0 12:2.1725 13:0.7242 14:0 
-0.02490041391131614 0.007379059484668382 1:0 2:1 3:12 4:49434.887 5:4 6:10.0468 7:6 8:192.9814 9:6.9266 10:0.7956 11:0 12:0.4108 13:1.9139 14:0 
-0.0255694685300295 0.008186734384873384 1:0 2:0 3:6 4:16066.363 5:4 6:57.5581 7:1 8:0.2576 9:53.9466 10:0.8647 11:1.1981 12:0 13:1.5487 14:0 
-0.04238772620496067 0.01347853392394777 1:0 2:0 3:9 4:105248.2 5:4 6:72.9279 7:4 8:96.3108 9:17.4648 10:0 11:9.3404 12:21.7076 13:24.4151 14:0 
-0.04266227724438998 0.01367864012817088 1:0 2:1 3:8 4:117241.58 5:4 6:216.4709 7:2 8:6.0986 9:70.0584 10:24.8605 11:38.9806 12:0 13:82.5715 14:0 
-0.03411464588939117 0.01043606148622195 1:0 2:0 3:10 4:43976.871 5:5 6:177.5428 7:5 8:112.1267 9:100 10:22.0717 11:22.239 12:19.8247 13:13.4074 14:0 
-0.01294980114060489 0.004005599959399808 1:0 2:0 3:10 4:46288.164 5:4 6:49.0994 7:5 8:23.1287 9:4.1297 10:42.8315 11:1.3575 12:0 13:0.7808 14:0 
-0.03357940080115046 0.01007700367646564 1:0 2:1 3:9 4:59630.441 5:4 6:42.6732 7:3 8:27.9642 9:16.2836 10:6.6953 11:15.7273 12:3.967 13:0 14:0 
-0.03170801500538925 0.009971060917375039 1:0 2:0 3:9 4:19006.607 5:3 6:40.6432 7:4 8:4.6118 9:12.6697 10:0 11:3.9857 12:23.9879 13:0 14:0 
-0.02343390785510047 0.006934059040335271 1:0 2:1 3:11 4:49905.102 5:3 6:26.8519 7:5 8:49.7641 9:25.1378 10:0 11:0 12:0.3959 13:1.3182 14:0 
-0.04019344123891711 0.01266682378427603 1:0 2:0 3:9 4:126707.44 5:3 6:20.671 7:4 8:8.7194 9:11.4872 10:0 11:0 12:2.5142 13:6.6696 14:0 
-0.02204524156185356 0.00682750572965387 1:0 2:0 3:8 4:23362.869 5:5 6:26.3175 7:3 8:98.4246 9:15.6966 10:0.9519 11:0.8061 12:1.0709 13:7.792 14:0 
-0.03191934876874158 0.01009563092853633 1:0 2:1 3:11 4:52221.328 5:3 6:2.5511 7:5 8:36.6599 9:1.6875 10:0 11:0.5014 12:0 13:0.3622 14:0 
-0.02257735969299826 0.007173070740936706 1:0 2:0 3:8 4:18841.832 5:4 6:25.5111 7:3 8:3.5111 9:10.1826 10:3.4635 11:3.3329 12:0 13:8.5321 14:0 
-0.03409947296555155 0.007346439517830905 1:0 2:0 3:7 4:43274.516 5:3 6:8.7343 7:2 8:3.5353 9:6.2797 10:0 11:0 12:1.4284 13:1.0262 14:0 
-0.02248794383054418 0.006636738382545193 1:0 2:0 3:7 4:4995.834 5:3 6:14.5861 7:2 8:1.9542 9:10.2819 10:0 11:3.2417 12:1.0625 13:0 14:0 
-0.03054548280811553 0.01023995019652457 1:0 2:0 3:7 4:61923.668 5:5 6:64.7145 7:2 8:64.7819 9:6.9954 10:16.2094 11:3.9752 12:23.3245 13:14.2099 14:0 
-0.03704674523865542 0.01176186217173786 1:0 2:1 3:6 4:205786.05 5:4 6:100.6469 7:0 8:0 9:100 10:0 11:0.2738 12:0.1709 13:0.2022 14:0 
-0.04248637465281507 0.01359055011231673 1:0 2:0 3:8 4:40798.691 5:3 6:7.943 7:3 8:11.5511 9:4.3398 10:0 11:3.1707 12:0 13:0.4325 14:0 
-0.04275431036807048 0.01341442066817505 1:0 2:1 3:6 4:137486.28 5:5 6:105.5574 7:0 8:0 9:100 10:3.9145 11:0.4856 12:0.6301 13:0.5273 14:0 
-0.02058106673390706 0.006587532422979516 1:0 2:1 3:10 4:55005.113 5:3 6:4.2774 7:4 8:19.3965 9:3.518 10:0 11:0.3554 12:0.404 13:0 14:0 
-0.03092976113426765 0.009789860989477317 1:0 2:0 3:9 4:54315.285 5:5 6:147.7549 7:4 8:26.8435 9:82.3949 10:22.4871 11:27.9728 12:8.1218 13:6.7782 14:0 
-0.04241680249434993 0.01348634372261731 1:0 2:1 3:6 4:144070.69 5:4 6:101.1018 7:0 8:0 9:100 10:0.2316 11:0.4398 12:0.4303 13:0 14:0 
-0.03826098678663076 0.01165017477669905 1:0 2:0 3:11 4:17714.693 5:3 6:18.6066 7:6 8:18.8315 9:7.408 10:5.6674 11:5.5312 12:0 13:0 14:0 
-0.0425685077393983 0.01335244870964841 1:0 2:0 3:9 4:140920.44 5:3 6:28.9737 7:4 8:74.624 9:13.4286 10:0 11:2.0534 12:13.4917 13:0 14:0 
-0.005673274603569312 0.001862413238119698 1:0 2:0 3:8 4:21333.096 5:3 6:29.389 7:3 8:10.1871 9:16.944 10:0 11:5.5158 12:6.9292 13:0 14:0 
-0.02767285795651076 0.008745928320099775 1:0 2:0 3:7 4:55576.316 5:4 6:44.6677 7:2 8:15.5378 9:12.7238 10:0 11:2.4402 12:1.7172 13:27.7865 14:0 
-0.01998930739195826 0.005769099103839825 1:0 2:0 3:8 4:14900.702 5:4 6:143.755 7:3 8:4.4481 9:21.5862 10:20.8529 11:0 12:1.316 13:100 14:0 
-0.04240730718361235 0.0136602370718994 1:0 2:1 3:6 4:348490.41 5:5 6:38.578 7:0 8:0 9:31.5148 10:1.6344 11:1.6675 12:2.0616 13:1.6998 14:0 
-0.02146161893538877 0.006421509081892341 1:0 2:1 3:9 4:36058.68 5:5 6:46.9677 7:3 8:135.3394 9:28.7855 10:2.0287 11:1.7042 12:11.2136 13:3.2358 14:0 
-0.008199576583902357 0.002177047908984248 1:0 2:0 3:9 4:49309.289 5:5 6:58.3216 7:4 8:39.9432 9:21.9046 10:8.0306 11:6.42 12:9.0527 13:12.9136 14:0 
-0.04247590659115208 0.01367784981293274 1:0 2:1 3:6 4:327429.47 5:3 6:103.8216 7:0 8:0 9:96.2794 10:0 11:4.766 12:2.7761 13:0 14:0 
-0.03314532998734621 0.01014283184093168 1:0 2:1 3:9 4:12421.199 5:5 6:16.7274 7:4 8:11.8279 9:3.6676 10:5.8494 11:1.9032 12:1.706 13:3.6012 14:0 
-0.02095656814199064 0.006336972978469201 1:0 2:1 3:8 4:63172.824 5:4 6:33.2315 7:2 8:30.9933 9:26.0494 10:2.9566 11:1.2824 12:0 13:2.9431 14:0 
-0.005985264499454726 0 1:0 2:0 3:9 4:9519.854 5:5 6:9.6911 7:4 8:3.6044 9:5.0535 10:1.2008 11:1.0637 12:1.029 13:1.3441 14:0 
-0.04262707351592321 0.01367917071059899 1:0 2:1 3:6 4:343929.56 5:3 6:32.1765 7:0 8:0 9:23.7757 10:2.9682 11:0 12:0 13:5.4326 14:0 
-0.03089335011231031 0.009681208255595153 1:0 2:0 3:8 4:255637.98 5:3 6:104.7761 7:3 8:7.5253 9:4.3969 10:0.3792 11:0 12:0 13:100 14:0 
-0.01249258095132894 0.004448837028945551 1:0 2:0 3:8 4:47415.57 5:3 6:29.7499 7:3 8:4.9765 9:27.2795 10:0.9279 11:1.5425 12:0 13:0 14:0 
-0.03161801427618183 0.01004977260435212 1:0 2:0 3:8 4:59063.156 5:5 6:129.8665 7:3 8:104.7405 9:24.4311 10:8.914 11:43.9633 12:20.2481 13:32.3101 14:0 
-0.04271429277007155 0.01365731250300822 1:0 2:0 3:7 4:164973.45 5:3 6:35.2499 7:2 8:0.2596 9:32.5735 10:1.229 11:1.4474 12:0 13:0 14:0 
-0.04257489810607673 0.01354038328894486 1:0 2:1 3:6 4:182974.83 5:4 6:114.9485 7:0 8:0 9:12.9529 10:100 11:1.415 12:0.5806 13:0 14:0 
-0.01970088745806461 0.005656567991477889 1:0 2:1 3:8 4:26935.424 5:3 6:20.5198 7:2 8:0.7516 9:16.9729 10:1.6063 11:1.9405 12:0 13:0 14:0 
-0.04257038549573522 0.01362352600383676 1:0 2:0 3:8 4:299719.09 5:3 6:8.9891 7:3 8:3.9115 9:6.2267 10:0.4275 11:2.3349 12:0 13:0 14:0 
-0.01345111549804633 0.0007368631889569932 1:0 2:0 3:8 4:8380.653 5:5 6:13.7194 7:3 8:3.4337 9:10.1948 10:0.629 11:0.9115 12:1.2153 13:0.7688 14:0 
-0.0424798759661888 0.01346928755327043 1:0 2:1 3:6 4:725711.81 5:4 6:31.2494 7:0 8:0 9:30.1121 10:0 11:0.1949 12:0.7076 13:0.2348 14:0 
-0.04256982409321086 0.01363778914873454 1:0 2:0 3:8 4:257301.97 5:3 6:99.3474 7:3 8:15.3548 9:47.5462 10:2.463 11:49.3381 12:0 13:0 14:0 
-0.03487402416934693 0.01084719673545576 1:0 2:1 3:11 4:80590.023 5:4 6:6.4987 7:5 8:13.3315 9:3.7837 10:0.9077 11:0 12:0.5317 13:1.2757 14:0 
-0.02684347214193131 0.007990926688364652 1:0 2:0 3:10 4:47060.727 5:4 6:8.6841 7:5 8:3.303 9:4.4432 10:1.019 11:1.7619 12:0 13:1.46 14:0 
-0.02136068737911856 0.006617813290753116 1:0 2:1 3:6 4:85639.156 5:4 6:102.6362 7:0 8:0 9:100 10:1.9404 11:0 12:0.3153 13:0.3806 14:0 
-0.04263523421366022 0.01365369385039605 1:0 2:1 3:11 4:91716.148 5:3 6:4.3276 7:6 8:8.6138 9:2.963 10:0 11:0 12:0.8217 13:0.5429 14:0 
-0.0182366186911158 0.005321331464832824 1:0 2:1 3:9 4:196629.2 5:3 6:5.8724 7:4 8:32.783 9:5.1923 10:0.2873 11:0 12:0.3928 13:0 14:0 
-0.04307245177825531 0.01365665068741157 1:0 2:0 3:10 4:160446.94 5:4 6:10.2537 7:5 8:24.6025 9:9.5821 10:0 11:0.2737 12:0.1944 13:0.2035 14:0 
-0.009393382023053157 0.002480225385602275 1:0 2:0 3:10 4:16216.384 5:5 6:17.1805 7:5 8:27.3701 9:4.5243 10:1.5084 11:2.3176 12:3.698 13:5.1322 14:0 
-0.01312533581003168 0.004626366926456847 1:0 2:1 3:11 4:44673.434 5:3 6:26.6739 7:5 8:88.9906 9:20.5498 10:2.9866 11:0 12:3.1375 13:0 14:0 
-0.04263601685591967 0.01339506213547659 1:0 2:0 3:8 4:199457.08 5:5 6:137.528 7:3 8:24.4872 9:100 10:6.2921 11:21.8483 12:4.8637 13:4.524 14:0 
-0.04247937662674606 0.01347851323553062 1:0 2:1 3:6 4:214171.48 5:3 6:42.6131 7:0 8:0 9:41.1845 10:0.9592 11:0 12:0.4693 13:0 14:0 
-0.03773282517022564 0.01182952276158378 1:0 2:1 3:6 4:329052.22 5:3 6:17.6518 7:0 8:0 9:8.2804 10:7.4182 11:0 12:1.9532 13:0 14:0 
-32 0 1:0 2:0 3:9 4:244.04 5:5 6:192.1408 7:4 8:72.2345 9:100 10:23.4801 11:20.0475 12:21.8214 13:26.7918 14:0 
-0.005210632241435869 0.0009077824753653654 1:0 2:1 3:10 4:3846.451 5:5 6:87.4755 7:5 8:47.0394 9:44.2999 10:9.8092 11:7.3224 12:13.5397 13:12.5043 14:0 
-32 0 1:0 2:1 3:6 4:344.634 5:5 6:158.1588 7:0 8:0 9:100 10:1.7474 11:41.1476 12:2.0481 13:13.2157 14:0 
-0.03236760209112219 0.01018165130225585 1:0 2:1 3:6 4:328706.56 5:4 6:101.6138 7:0 8:0 9:100 10:0.5267 11:0.5394 12:0 13:0.5477 14:0 
-0.01855820692608101 0.005959711700924686 1:0 2:1 3:8 4:5152.893 5:4 6:110.4722 7:2 8:0.6849 9:3.3781 10:0 11:100 12:6.1113 13:0.9828 14:0 
-0.02570552914179036 0.007894653276674282 1:0 2:1 3:6 4:189939.27 5:3 6:35.8333 7:0 8:0 9:34.2171 10:0.4929 11:0 12:1.1233 13:0 14:0 
-0.04050710630575355 0.01220355198833389 1:0 2:1 3:6 4:126433.71 5:3 6:110.3436 7:0 8:0 9:100 10:0 11:0 12:7.7136 13:2.63 14:0 
-0.01207959124436895 0.003180160566682411 1:0 2:1 3:11 4:30056.572 5:4 6:10.0351 7:6 8:8.5073 9:6.8282 10:1.209 11:0.5747 12:1.4232 13:0 14:0 
-0.03475510677448981 0.01042272440465638 1:0 2:0 3:8 4:6262.58 5:3 6:11.6302 7:3 8:6.9407 9:7.9378 10:0 11:1.9142 12:1.7781 13:0 14:0 
-0.042171786787917 0.01317257971452157 1:0 2:0 3:10 4:7818.231 5:4 6:27.0335 7:5 8:7.3716 9:12.1391 10:0 11:7.4674 12:5.0602 13:2.3668 14:0 
-0.01003894790899829 0.003227071027096745 1:0 2:1 3:10 4:84688.695 5:4 6:12.9288 7:4 8:3.7549 9:8.9014 10:0 11:0.684 12:1.6994 13:1.644 14:0 
-0.04241042540522077 0.01339627527524512 1:0 2:0 3:7 4:371803.31 5:4 6:4.7824 7:2 8:0.8151 9:3.1573 10:0 11:0.3259 12:0.3045 13:0.9947 14:0 
-0.01999972451749374 0.006551309221462688 1:0 2:1 3:9 4:28207.668 5:4 6:5.3583 7:3 8:4.417 9:4.1462 10:0.5564 11:0.446 12:0.2098 13:0 14:0 
-0.03514359672156886 0.01091843470123109 1:0 2:1 3:8 4:101271.46 5:3 6:32.1526 7:2 8:4.7454 9:29.7104 10:0 11:0.9367 12:0 13:1.5055 14:0 
-0.04301653679099193 0.01349608718568079 1:0 2:1 3:6 4:453323.28 5:5 6:102.6927 7:0 8:0 9:100 10:0.8698 11:0.6776 12:0.483 13:0.6623 14:0 
-0.02339394296596509 0.006866278936439679 1:0 2:1 3:9 4:5515.574 5:5 6:110.9007 7:3 8:0.9243 9:4.3234 10:100 11:4.668 12:1.3232 13:0.586 14:0 
-0.04304816642023446 0.01351726734489461 1:0 2:1 3:6 4:225731 5:4 6:86.3071 7:0 8:0 9:81.7456 10:2.7515 11:1.1571 12:0.653 13:0 14:0 
-0.02371009215537836 0.006820659339316599 1:0 2:0 3:9 4:75375.75 5:5 6:66.5163 7:4 8:38.3443 9:38.3343 10:6.2859 11:9.4684 12:5.4861 13:6.9416 14:0 
-0.04274554282279058 0.01343153425447151 1:0 2:1 3:10 4:92292.398 5:3 6:17.8935 7:4 8:8.9127 9:8.9165 10:0 11:0 12:0.9244 13:8.0527 14:0 
-0.01457768897015604 0.004569171506151049 1:0 2:1 3:6 4:22215.594 5:3 6:101.8205 7:0 8:0 9:100 10:0 11:0.7358 12:1.0848 13:0 14:0 
-0.03880438431939626 0.01202139233759314 1:0 2:1 3:11 4:17980.775 5:3 6:14.6989 7:5 8:17.4745 9:7.4409 10:0 11:2.2716 12:0 13:4.9863 14:0 
-0.03735152231076105 0.01161441776061362 1:0 2:0 3:9 4:56589.488 5:3 6:18.4414 7:4 8:10.2119 9:13.0654 10:3.1945 11:0 12:0 13:2.1815 14:0 
-0.0427574001487106 0.01352242929657804 1:0 2:1 3:6 4:789656.88 5:3 6:12.8194 7:0 8:0 9:8.3913 10:3.4298 11:0 12:0.9983 13:0 14:0 
-0.03648838437398688 0.01119477197580604 1:0 2:0 3:9 4:88625.203 5:3 6:72.7364 7:4 8:6.2031 9:7.8654 10:63.406 11:0 12:0 13:1.4649 14:0 
-0.02228068425866975 0.006882278576894814 1:0 2:0 3:9 4:54560.023 5:4 6:4.8427 7:4 8:21.7015 9:2.4026 10:1.3655 11:0 12:0.4651 13:0.6094 14:0 
-0.04262830529257516 0.01366201834260699 1:0 2:1 3:8 4:48482.711 5:3 6:12.9663 7:2 8:4.9735 9:11.2002 10:0.8669 11:0.8992 12:0 13:0 14:0 
-0.01612985468018316 0.004948505217539898 1:0 2:0 3:10 4:44709.41 5:5 6:123.6512 7:5 8:58.7984 9:16.5074 10:100 11:5.2322 12:0.8755 13:1.0361 14:0 
-0.03034007165525315 0.009389825087009196 1:0 2:1 3:6 4:21374.117 5:4 6:179.1192 7:0 8:0 9:53.6858 10:0 11:100 12:19.8152 13:5.6182 14:0 
-0.04238945525722654 0.01329904028631967 1:0 2:1 3:6 4:70982.797 5:4 6:51.7377 7:0 8:0 9:36.3422 10:1.7514 11:0 12:12.3305 13:1.3136 14:0 
-0.02427371860372649 0.008067941809621131 1:0 2:0 3:12 4:4017.853 5:5 6:58.6207 7:7 8:31.5737 9:7.5271 10:47.2422 11:2.0708 12:1.475 13:0.3057 14:0 
-0.02733106792344342 0.008837736869023227 1:0 2:1 3:6 4:66962.813 5:4 6:149.4356 7:0 8:0 9:100 10:20.3062 11:16.9283 12:12.2011 13:0 14:0 
-0.04276378747886656 0.01353841443166692 1:0 2:1 3:6 4:308185.44 5:3 6:42.2566 7:0 8:0 9:30.5277 10:0 11:4.8631 12:6.8658 13:0 14:0 
-0.04271268861141592 0.01365613544623867 1:0 2:1 3:6 4:165501.89 5:3 6:113.1069 7:0 8:0 9:15.8456 10:3.9477 11:93.3136 12:0 13:0 14:0 
-0.03977691353761337 0.01225828861449074 1:0 2:1 3:6 4:261907.89 5:5 6:102.2302 7:0 8:0 9:100 10:1.0585 11:0.3111 12:0.437 13:0.4235 14:0 
-0.04183843827374645 0.01290934883230049 1:0 2:1 3:10 4:78903.43 5:3 6:22.0335 7:4 8:5.486 9:20.1611 10:0 11:1.379 12:0.4934 13:0 14:0 
-0.03932621122351621 0.01258357693152395 1:0 2:1 3:8 4:78451.203 5:4 6:47.461 7:2 8:7.4999 9:36.0746 10:0 11:2.9812 12:5.327 13:3.0781 14:0 
-0.0425874822257869 0.01360474198305939 1:0 2:0 3:9 4:103718.71 5:3 6:4.1948 7:4 8:35.8744 9:2.5603 10:0 11:0.7792 12:0.8553 13:0 14:0 
-0.02589674881348074 0.006731448033273801 1:0 2:1 3:6 4:35366.789 5:4 6:129.9157 7:0 8:0 9:100 10:9.1141 11:16.8319 12:3.9698 13:0 14:0 
-0.04313905108038435 0.01360430983598754 1:0 2:1 3:10 4:138337.38 5:4 6:9.185 7:4 8:4.5732 9:7.1461 10:0 11:0.8899 12:0.66 13:0.489 14:0 
-0.02799295099769471 0.008491965071410519 1:0 2:0 3:11 4:8760.896 5:5 6:112.8292 7:6 8:59.8022 9:3.7102 10:100 11:5.8332 12:2.615 13:0.6708 14:0 
-0.03420410662721851 0.01062949941800229 1:0 2:1 3:7 4:4516.051 5:5 6:186.4156 7:1 8:0.973 9:7.6767 10:10.6753 11:38.8251 12:56.2019 13:73.0368 14:0 
-0.03067789819592004 0.009688063645944009 1:0 2:1 3:6 4:382298.25 5:4 6:100.4844 7:0 8:0 9:100 10:0.0876 11:0.254 12:0 13:0.1428 14:0 
-0.04304479959151997 0.01353943295045251 1:0 2:0 3:7 4:274894.03 5:3 6:17.5695 7:2 8:23.8019 9:14.7264 10:0 11:0 12:1.311 13:1.5321 14:0 
-0.03119487634723439 0.009506621290216935 1:0 2:1 3:6 4:382474.69 5:3 6:100.4686 7:0 8:0 9:100 10:0.3539 11:0 12:0 13:0.1147 14:0 
-0.04051606900205906 0.0127808649688157 1:0 2:0 3:6 4:174326.23 5:3 6:132.5 7:1 8:85.1432 9:13.6117 10:0 11:0 12:41.7367 13:77.1515 14:0 
-0.04271813067224223 0.01333158653957761 1:0 2:1 3:6 4:95331.664 5:3 6:58.2787 7:0 8:0 9:28.7859 10:24.4512 11:0 12:0 13:5.0416 14:0 
-0.01020122882582529 0.003238333158074147 1:0 2:1 3:10 4:53138.145 5:3 6:57.2279 7:5 8:75.6806 9:12.952 10:0 11:24.6641 12:0 13:19.6119 14:0 
-0.04050533504096154 0.01267519860611194 1:0 2:0 3:9 4:76408.352 5:3 6:62.2053 7:4 8:47.7034 9:31.2741 10:0 11:13.4016 12:17.5296 13:0 14:0 
-0.02212718569138569 0.006552425305100003 1:0 2:1 3:6 4:184655.69 5:4 6:104.8658 7:0 8:0 9:100 10:0 11:2.1445 12:1.54 13:1.1813 14:0 
-0.04304479959021496 0.01359137469229893 1:0 2:1 3:6 4:197741.11 5:3 6:111.8924 7:0 8:0 9:100 10:8.3123 11:0 12:3.5801 13:0 14:0 
-0.01744193738370231 0.005946476928611982 1:0 2:0 3:9 4:51140.848 5:5 6:49.1196 7:4 8:47.8853 9:13.4177 10:5.5017 11:11.7917 12:8.0091 13:10.3994 14:0 
-0.02883182573911608 0.008693362139137517 1:0 2:0 3:10 4:1144.785 5:3 6:22.3492 7:5 8:68.9218 9:13.5894 10:3.6312 11:0 12:5.1286 13:0 14:0 
-0.02181987617855391 0.006393954465829924 1:0 2:0 3:8 4:15444.291 5:4 6:115.0649 7:3 8:1.2051 9:9.7443 10:100 11:3.7438 12:1.5768 13:0 14:0 
-0.0423197362797122 0.01339477101470704 1:0 2:1 3:6 4:67465.063 5:5 6:89.6585 7:0 8:0 9:13.2161 10:14.1343 11:13.7912 12:20.9651 13:27.5518 14:0 
-0.04272381502349892 0.01340650275287786 1:0 2:0 3:6 4:256565.02 5:5 6:141.4624 7:1 8:0.2718 9:19.1753 10:100 11:15.5163 12:5.1832 13:1.5876 14:0 
-0.02322329268330337 0.007700458341047545 1:0 2:1 3:8 4:6575.322 5:3 6:9.4003 7:2 8:2.7752 9:6.8302 10:1.4318 11:1.1384 12:0 13:0 14:0 
-0.04035281018555537 0.01260544915258449 1:0 2:1 3:8 4:19380.752 5:5 6:169.9857 7:2 8:39.8316 9:21.5896 10:24.2457 11:21.9436 12:50.5383 13:51.6684 14:0 
-0.04281313487935295 0.01338615292176276 1:0 2:0 3:7 4:283479.56 5:3 6:18.9944 7:2 8:2.2172 9:14.602 10:0 11:2.9756 12:0 13:1.4168 14:0 
-0.03694575604165784 0.01148857205663778 1:0 2:0 3:10 4:175570.45 5:3 6:9.7276 7:5 8:35.273 9:3.6592 10:0 11:0 12:5.2711 13:0.7973 14:0 
-0.04248442234190186 0.01345347481509879 1:0 2:1 3:6 4:109546.77 5:5 6:208.3752 7:0 8:0 9:32.709 10:45.2915 11:55.8839 12:70.1666 13:4.3242 14:0 
-0.03997605788466946 0.0123525319598225 1:0 2:1 3:6 4:110122 5:5 6:132.7284 7:0 8:0 9:22.2427 10:31.181 11:13.3441 12:57.4286 13:8.532 14:0 
-0.04121279925457061 0.01277038622905052 1:0 2:1 3:8 4:98654.953 5:4 6:4.4916 7:2 8:1.1183 9:1.6502 10:0 11:1.0259 12:1.084 13:0.7315 14:0 
-0.02472696689936364 0.007058768533204561 1:0 2:1 3:10 4:31959.592 5:5 6:70.9635 7:4 8:77.6778 9:29.2526 10:10.2221 11:5.8822 12:5.9341 13:19.6725 14:0 
-0.04307635804507481 0.01333524218174865 1:0 2:0 3:10 4:93285.523 5:4 6:13.2486 7:5 8:21.0304 9:8.5809 10:0.9184 11:0 12:0.7752 13:2.974 14:0 
-0.02680877199666141 0.008004636278084454 1:0 2:0 3:8 4:116169.12 5:4 6:63.4642 7:3 8:98.3516 9:10.6785 10:0 11:2.8327 12:27.3118 13:22.6412 14:0 
-0.01045348151073657 0.003435506087924424 1:0 2:1 3:10 4:59431.5 5:3 6:17.1938 7:4 8:59.8767 9:11.8459 10:0 11:0 12:1.2165 13:4.1314 14:0 
-0.04312609681821722 0.01366752492752554 1:0 2:1 3:9 4:83698.141 5:4 6:120.0612 7:3 8:43.5593 9:98.4148 10:0 11:7.7394 12:7.6081 13:6.2989 14:0 
-0.01497326043108129 0.004354057135120191 1:0 2:0 3:9 4:45147.426 5:5 6:91.4851 7:4 8:56.5909 9:43.1252 10:13.4605 11:9.2847 12:12.0138 13:13.601 14:0 
-0.03793487095662068 0.01169227767966685 1:0 2:0 3:11 4:47753.77 5:3 6:7.3433 7:6 8:42.1558 9:2.9305 10:0 11:0.3868 12:4.0259 13:0 14:0 
-0.01355684995030515 0.00415206684916769 1:0 2:1 3:10 4:12744.573 5:3 6:102.1599 7:4 8:27.0525 9:100 10:0 11:0.9385 12:1.2213 13:0 14:0 
-0.04217666490667554 0.01303696419874056 1:0 2:1 3:13 4:34274.934 5:5 6:13.0061 7:7 8:62.4037 9:8.3069 10:0.4246 11:3.3416 12:0.3409 13:0.5921 14:0 
-0.01790626310645033 0.006400649695628591 1:0 2:1 3:8 4:47122.156 5:3 6:112.6817 7:2 8:7.6508 9:50.238 10:0 11:0 12:19.1747 13:43.269 14:0 
-0.03762145109085746 0.01163518757242033 1:0 2:1 3:6 4:84538.211 5:4 6:140.9665 7:0 8:0 9:36.636 10:15.1932 11:25.8465 12:63.2908 13:0 14:0 
-0.02885101076394314 0.009123547839046675 1:0 2:0 3:9 4:26254.344 5:3 6:7.6575 7:4 8:1.8202 9:5.8212 10:0 11:0.6736 12:1.1627 13:0 14:0 
-0.01448386357823382 0.005074336105590503 1:0 2:0 3:9 4:43667.633 5:5 6:77.7828 7:4 8:17.854 9:56.6104 10:6.4809 11:3.4222 12:2.9143 13:8.355 14:0 
-0.04041169952262658 0.01252147473073795 1:0 2:0 3:11 4:196257.19 5:5 6:10.3089 7:6 8:17.6288 9:5.6246 10:0.1595 11:2.1545 12:0.9713 13:1.399 14:0 
-32 0 1:0 2:1 3:9 4:115.836 5:3 6:5.7638 7:3 8:11.6665 9:3.8103 10:0 11:0.987 12:0.9665 13:0 14:0 
-0.04310502517006931 0.01339282547304621 1:0 2:0 3:8 4:291708.91 5:3 6:7.4192 7:3 8:0.6325 9:3.4119 10:0 11:0.3263 12:3.6809 13:0 14:0 
-0.0425549956001004 0.01361082077696024 1:0 2:0 3:14 4:211055.03 5:3 6:21.5769 7:9 8:202.2487 9:20.1101 10:0 11:0 12:0.8409 13:0.6259 14:0 
-0.000229229562633099 0.0006958922323566962 1:0 2:1 3:10 4:29470.395 5:5 6:32.9711 7:5 8:30.7738 9:8.047 10:0.9405 11:1.1045 12:20.2784 13:2.6007 14:0 
-0.04284450284906849 0.01341445257536039 1:0 2:1 3:6 4:271963.47 5:4 6:169.0621 7:0 8:0 9:100 10:0 11:1.9619 12:2.8649 13:64.2354 14:0 
-0.01360072188543579 0.004904322017449175 1:0 2:1 3:13 4:81166.922 5:3 6:5.7115 7:7 8:33.3811 9:5.3159 10:0.2633 11:0 12:0 13:0.1323 14:0 
-0.005043960176209315 0 1:0 2:0 3:10 4:35951.863 5:3 6:6.4709 7:5 8:1.4509 9:1.783 10:0.6777 11:0 12:0 13:4.0103 14:0 
-0.04073327377904745 0.01253472337380046 1:0 2:1 3:13 4:42159.934 5:4 6:5.7977 7:7 8:38.8284 9:4.8065 10:0.1201 11:0 12:0.4348 13:0.4363 14:0 
-0.01380180852525791 0.003851828513011539 1:0 2:1 3:9 4:54516.109 5:3 6:15.7275 7:3 8:44.4806 9:12.0913 10:1.9061 11:1.7302 12:0 13:0 14:0 
-0.02691457992313812 0.009221404475644957 1:0 2:0 3:11 4:11978.547 5:5 6:151.5737 7:6 8:34.461 9:23.1907 10:27.4311 11:39.7373 12:42.008 13:19.2066 14:0 
-0.01869300392203233 0.005442817796193706 1:0 2:1 3:6 4:6641.912 5:4 6:102.3261 7:0 8:0 9:100 10:0.9696 11:0.8091 12:0 13:0.5474 14:0 
-0 0.003927576297874236 1:0 2:0 3:7 4:43207.727 5:4 6:21.3169 7:2 8:13.3752 9:4.6858 10:14.7615 11:1.4703 12:0.3993 13:0 14:0 
-0.0403852290202032 0.01267017438333057 1:0 2:0 3:10 4:81882.477 5:3 6:29.8456 7:5 8:22.7163 9:22.6518 10:0 11:0 12:4.372 13:2.8217 14:0 
-0.03032598240657288 0.009243953202079417 1:0 2:1 3:10 4:85288.109 5:5 6:38.5745 7:4 8:77.9091 9:8.4156 10:18.5869 11:6.8589 12:1.8844 13:2.8287 14:0 
-0.04285033215320067 0.01341442067044135 1:0 2:1 3:6 4:266943.78 5:5 6:106.8788 7:0 8:0 9:100 10:1.0362 11:2.2654 12:2.2632 13:1.314 14:0 
-0.04240875679737094 0.01358145948364953 1:0 2:1 3:10 4:69833.211 5:4 6:18.5514 7:4 8:116.2223 9:8.7046 10:0 11:5.8455 12:2.2187 13:1.7826 14:0 
-0.04091555135732367 0.012742443493728 1:0 2:1 3:13 4:81477.672 5:3 6:6.4318 7:7 8:50.5773 9:5.8492 10:0 11:0 12:0.344 13:0.2386 14:0 
-0.03258632203020984 0.01025537572788865 1:0 2:1 3:6 4:12907.911 5:4 6:100.2164 7:0 8:0 9:100 10:0.0464 11:0.0629 12:0 13:0.107 14:0 
-0.04131978993877894 0.01283573735571453 1:0 2:1 3:10 4:40078.332 5:5 6:114.8604 7:4 8:1.1454 9:6.491 10:100 11:3.0948 12:4.4363 13:0.8383 14:0 
-0.02425407694381078 0.006660574416727572 1:0 2:1 3:6 4:29898.176 5:3 6:113.7736 7:0 8:0 9:100 10:0 11:0 12:11.6853 13:2.0883 14:0 
-0.02540903535331679 0.007910144545263322 1:0 2:0 3:10 4:162107.73 5:5 6:16.8517 7:5 8:7.1803 9:10.9044 10:0.5522 11:0.9385 12:0.9686 13:3.488 14:0 
-0.02949931721904331 0.009194879918589556 1:0 2:0 3:9 4:26605.803 5:5 6:16.6487 7:4 8:3.0402 9:5.592 10:2.1908 11:1.7833 12:2.0854 13:4.9972 14:0 
-0.04021062406781434 0.01253886174952806 1:0 2:1 3:10 4:82181.109 5:5 6:24.9882 7:5 8:94.2811 9:12.6337 10:3.5404 11:1.512 12:3.5053 13:3.7969 14:0 
-0.03382182262184313 0.01040488917392218 1:0 2:1 3:6 4:41818.379 5:5 6:100.6659 7:0 8:0 9:100 10:0.1228 11:0.1054 12:0.3035 13:0.1342 14:0 
-0.0424609316182768 0.0133005610840134 1:0 2:0 3:7 4:177163.81 5:3 6:129.5179 7:2 8:4.7022 9:21.5164 10:81.2317 11:26.7698 12:0 13:0 14:0 
-0.04247503123327162 0.01330074590683117 1:0 2:1 3:6 4:501037.38 5:4 6:64.9853 7:0 8:0 9:62.6334 10:0.3376 11:0.4165 12:1.5978 13:0 14:0 
-0.02780823542169471 0.008200536611126319 1:0 2:0 3:8 4:46098.77 5:5 6:46.4114 7:3 8:15.3117 9:10.2093 10:24.9826 11:5.7784 12:3.0179 13:2.4232 14:0 
-0.04248050721262825 0.01330478547406128 1:0 2:0 3:7 4:293964.38 5:4 6:112.8278 7:2 8:94.4536 9:6.1459 10:100 11:5.7025 12:0.9793 13:0 14:0 
-0.01695257195934796 0.004859193685203597 1:0 2:0 3:11 4:3418.141 5:5 6:59.5797 7:6 8:36.7175 9:2.5194 10:52.6677 11:2.1005 12:0.9192 13:1.3728 14:0 
-0.02870275857453314 0.008853593368198777 1:0 2:0 3:10 4:68948.844 5:4 6:13.0936 7:5 8:8.0061 9:6.1662 10:2.3994 11:1.8199 12:2.708 13:0 14:0 
-0.01111135962606477 0.002486910581929809 1:0 2:1 3:8 4:50943.961 5:5 6:17.996 7:2 8:13.4308 9:12.5944 10:1.1155 11:1.1829 12:1.8226 13:1.2807 14:0 
-0.02874625944385162 0.009463924807875113 1:0 2:0 3:8 4:41444.793 5:3 6:20.9671 7:3 8:31.4017 9:17.8802 10:1.5007 11:0 12:0 13:1.5862 14:0 
-0.0092814786271882 0.002890865888431117 1:0 2:0 3:8 4:54049.766 5:3 6:24.9138 7:3 8:4.7576 9:16.0669 10:0 11:3.0822 12:0 13:5.7646 14:0 
-0.04220951325509836 0.01308438757710684 1:0 2:1 3:6 4:31134.355 5:5 6:199.8867 7:0 8:0 9:75.5106 10:25.3099 11:1.4439 12:4.1078 13:93.5144 14:0 
-0.03591516214859963 0.01126965510492656 1:0 2:1 3:9 4:70410.406 5:3 6:95.3993 7:4 8:22.2017 9:16.7563 10:0 11:12.0187 12:66.6243 13:0 14:0 
-0.04252384895669586 0.01337392713809432 1:0 2:0 3:9 4:148360.44 5:5 6:22.2255 7:4 8:58.5692 9:9.11 10:2.5392 11:1.4933 12:4.1474 13:4.9356 14:0 
-0.01774894573475639 0.003373200329658821 1:0 2:1 3:10 4:3676.302 5:5 6:58.0142 7:5 8:8.8227 9:39.7367 10:8.985 11:2.2521 12:3.3382 13:3.7022 14:0 
-0.04227630928413723 0.013385678617496 1:0 2:0 3:9 4:150790.52 5:5 6:112.4084 7:4 8:41.6109 9:6.1119 10:0.9925 11:1.2278 12:100 13:4.0761 14:0 
-0.0133567650137948 0 1:0 2:0 3:10 4:50939.289 5:5 6:112.7489 7:5 8:49.0519 9:7.7423 10:0.6807 11:0.5604 12:100 13:3.7654 14:0 
-0.04087948300636002 0.0129321717622245 1:0 2:0 3:8 4:66598.375 5:4 6:75.2392 7:3 8:115.0176 9:18.2211 10:8.1725 11:45.2856 12:0 13:3.5601 14:0 
-0.03280712425193899 0.01138024286995504 1:0 2:1 3:8 4:35881.746 5:4 6:6.7348 7:2 8:13.2063 9:5.352 10:0 11:0.5111 12:0.5396 13:0.3321 14:0 
-0.0134399759069938 0.003596298522261609 1:0 2:1 3:11 4:61432.605 5:3 6:5.166 7:5 8:48.3582 9:3.8366 10:0.8228 11:0 12:0.5066 13:0 14:0 
-0.03687612964001996 0.01151049403428939 1:0 2:1 3:9 4:38301.297 5:5 6:40.883 7:3 8:16.5134 9:4.9457 10:2.144 11:2.4266 12:14.9387 13:16.428 14:0 
-0.03031783695672818 0.00928913057293107 1:0 2:1 3:10 4:42476.195 5:3 6:11.9596 7:4 8:3.6302 9:11.0748 10:0 11:0.3888 12:0 13:0.496 14:0 
-0.04257477496909801 0.01335368432705375 1:0 2:1 3:6 4:159510.03 5:3 6:52.6995 7:0 8:0 9:50.9541 10:0.7432 11:0 12:0 13:1.0022 14:0 
-0.03557192059836906 0.010762509842294 1:0 2:0 3:9 4:48985.27 5:5 6:54.9855 7:4 8:37.5283 9:29.1977 10:7.3938 11:3.4027 12:5.7636 13:9.2277 14:0 
-0.01344785116050181 0.002026836732732851 1:0 2:1 3:7 4:49560.363 5:4 6:16.4561 7:1 8:3.2921 9:10.3175 10:1.4303 11:3.2968 12:1.4115 13:0 14:0 
-0.007859540139944828 0.002037614108946761 1:0 2:0 3:11 4:47553.902 5:4 6:19.7985 7:6 8:7.5514 9:12.3594 10:0 11:0.3153 12:0.7589 13:6.3648 14:0 
-0.02531482498821474 0.007870908208272416 1:0 2:1 3:9 4:44279.281 5:5 6:42.3794 7:3 8:9.3532 9:7.0033 10:3.227 11:7.9078 12:8.6978 13:15.5435 14:0 
-0.04266660893787372 0.01330989589524251 1:0 2:0 3:9 4:135860.67 5:3 6:120.575 7:4 8:14.3882 9:100 10:0 11:18.1064 12:0 13:2.4686 14:0 
-0.01726248755940713 0.005007974481490765 1:0 2:0 3:9 4:3873.189 5:5 6:110.812 7:4 8:2.7544 9:4.0115 10:100 11:4.707 12:1.339 13:0.7544 14:0 
-0.03196017597122758 0.009686309400235738 1:0 2:0 3:10 4:22152.08 5:5 6:171.8385 7:5 8:46.5029 9:24.831 10:28.5643 11:20.9719 12:69.9592 13:27.5121 14:0 
-0.04263863490837028 0.01329064972334365 1:0 2:1 3:6 4:161574.59 5:3 6:101.2848 7:0 8:0 9:100 10:0.4972 11:0.7877 12:0 13:0 14:0 
-0.02841459494569279 0.008034802077936332 1:0 2:0 3:9 4:79338.313 5:5 6:25.5952 7:4 8:7.7508 9:3.9365 10:12.1377 11:4.3265 12:1.7189 13:3.4757 14:0 
-0.04274590632474762 0.01331935082686708 1:0 2:1 3:8 4:115193.48 5:4 6:16.3291 7:2 8:1.1926 9:4.4617 10:0.5677 11:0.5864 12:10.7133 13:0 14:0 
-0.03787475228726711 0.01167135868114141 1:0 2:1 3:9 4:39041.293 5:3 6:33.9765 7:3 8:8.6319 9:7.5666 10:23.7125 11:2.6974 12:0 13:0 14:0 
-0.03965121671219302 0.01213639060488908 1:0 2:1 3:10 4:50400.473 5:5 6:289.5868 7:4 8:102.551 9:40.7154 10:37.8287 11:57.5324 12:95.4935 13:58.0169 14:0 
-0.01338877332517826 0.002709692069040703 1:0 2:1 3:9 4:2639.687 5:4 6:33.3522 7:3 8:4.4012 9:14.4025 10:7.7432 11:5.4329 12:5.7736 13:0 14:0 
-0.03997070277146247 0.01230025022519488 1:0 2:0 3:10 4:76114.977 5:3 6:4.1455 7:5 8:10.1771 9:3.3815 10:0 11:0.3712 12:0 13:0.3928 14:0 
-0.03568923073761238 0.01097279755490332 1:0 2:1 3:10 4:89015.578 5:3 6:6.4736 7:4 8:1.0422 9:5.4297 10:0 11:0.3739 12:0.6699 13:0 14:0 
-0.03441448314386969 0.01056752215421125 1:0 2:0 3:8 4:23550.674 5:5 6:38.7077 7:3 8:1.5687 9:29.685 10:2.2484 11:1.5793 12:3.8958 13:1.2993 14:0 
-0.03921546361094808 0.01232826472143001 1:0 2:0 3:9 4:14057.939 5:5 6:230.3246 7:4 8:14.4102 9:34.2154 10:25.5613 11:71.8682 12:87.2601 13:11.4197 14:0 
-0.0315132459389752 0.009670913615978681 1:0 2:0 3:8 4:69114.563 5:4 6:53.8769 7:3 8:2.6606 9:5.4051 10:1.2843 11:45.4799 12:1.7075 13:0 14:0 
-0.02152046279911746 0.00639199282359576 1:0 2:1 3:6 4:154462.19 5:5 6:67.4602 7:0 8:0 9:28.4536 10:6.2963 11:27.2728 12:3.0051 13:2.4323 14:0 
-0.02628952956994494 0.008444626858129755 1:0 2:1 3:6 4:412915.91 5:3 6:101.4922 7:0 8:0 9:100 10:0 11:0.7471 12:0 13:0.7451 14:0 
-0.003947378627703314 0 1:0 2:0 3:8 4:9243.084 5:5 6:10.5397 7:3 8:1.1063 9:2.6572 10:3.2517 11:0.9858 12:2.5988 13:1.0462 14:0 
-0.02600119524285544 0.007794693366026895 1:0 2:0 3:7 4:38045.785 5:5 6:73.3778 7:2 8:6.2571 9:24.7256 10:8.7456 11:13.5498 12:13.5477 13:12.8091 14:0 
-0.01555123872863226 0.003221442121095553 1:0 2:0 3:9 4:43055.09 5:5 6:67.3618 7:4 8:14.668 9:46.2615 10:6.7252 11:5.0505 12:4.9963 13:4.3282 14:0 
-0.03935998333681567 0.01219273353227457 1:0 2:1 3:6 4:261624.64 5:5 6:106.592 7:0 8:0 9:100 10:0.7999 11:3.8279 12:0.8784 13:1.0859 14:0 
-0.03118144574682933 0.009810125960373339 1:0 2:1 3:6 4:108445.41 5:3 6:15.8281 7:0 8:0 9:12.5123 10:0.6851 11:2.6307 12:0 13:0 14:0 
-0 0.006314588730468998 1:0 2:1 3:10 4:643.408 5:3 6:29.6157 7:4 8:4.3349 9:20.0296 10:2.6971 11:0 12:6.8891 13:0 14:0 
-0.02413846545762835 0.007466755300806162 1:0 2:1 3:11 4:28746.156 5:5 6:38.4732 7:5 8:171.4681 9:16.2604 10:5.9889 11:5.6665 12:6.3239 13:4.2335 14:0 
-0.01997232353647995 0.006195040661108596 1:0 2:1 3:6 4:328860.13 5:5 6:105.1952 7:0 8:0 9:100 10:0.9642 11:1.343 12:1.6207 13:1.2673 14:0 
-0.03285873538909084 0.01102067417819186 1:0 2:1 3:8 4:13603.455 5:4 6:6.1383 7:2 8:3.5378 9:5.3904 10:0 11:0.191 12:0.2202 13:0.3368 14:0 
-0.04082608607282823 0.01293421190159411 1:0 2:1 3:6 4:19658.746 5:3 6:100.6573 7:0 8:0 9:100 10:0.357 11:0 12:0.3003 13:0 14:0 
-0.03629587766458131 0.01166092871550128 1:0 2:1 3:6 4:60043.309 5:3 6:118.4688 7:0 8:0 9:96.3521 10:4.049 11:18.0677 12:0 13:0 14:0 
-0.02143395890596946 0.00649200409273852 1:0 2:1 3:6 4:32652.238 5:4 6:100.5454 7:0 8:0 9:100 10:0.1833 11:0.2078 12:0.1543 13:0 14:0 
-0.02704127509759113 0.008984464080587964 1:0 2:1 3:9 4:109046.63 5:3 6:99.4551 7:3 8:24.8866 9:78.6564 10:15.4372 11:5.3615 12:0 13:0 14:0 
-0.03091870020199761 0.009406888620680294 1:0 2:0 3:9 4:26653.215 5:4 6:75.5791 7:4 8:160.9548 9:18.0196 10:7.8918 11:0 12:39.1751 13:10.4927 14:0 
-0.04013528021794488 0.01271511065030817 1:0 2:0 3:9 4:35576.961 5:4 6:121.9395 7:4 8:234.5598 9:48.58 10:27.7123 11:0 12:15.6905 13:29.9567 14:0 
-0.01661172181358326 0.005112606382208137 1:0 2:1 3:12 4:85364.664 5:5 6:34.3782 7:6 8:161.8494 9:17.4134 10:2.5377 11:3.2877 12:8.1713 13:2.968 14:0 
-0.02261654786891907 0.006735643319971119 1:0 2:1 3:8 4:51425.809 5:3 6:124.8274 7:2 8:5.4776 9:100 10:0 11:18.0483 12:6.7791 13:0 14:0 
-0.01152669025514812 0.003607748266663009 1:0 2:0 3:9 4:46278.789 5:3 6:81.3601 7:4 8:28.4647 9:61.6197 10:0 11:9.5803 12:10.1601 13:0 14:0 
-0.03268846714012164 0.009825539898144881 1:0 2:0 3:11 4:84792.313 5:3 6:31.9315 7:6 8:29.6729 9:24.8216 10:3.2956 11:0 12:3.8142 13:0 14:0 
-0.03101739775498186 0.009567758260821461 1:0 2:1 3:6 4:23307.293 5:5 6:116.8996 7:0 8:0 9:2.9951 10:11.0489 11:100 12:2.4242 13:0.4315 14:0 
-0.01558924415989854 0.005189470668764429 1:0 2:0 3:11 4:49354.551 5:3 6:18.3457 7:6 8:19.1946 9:8.1211 10:2.7351 11:0 12:7.4895 13:0 14:0 
-0.02069097720029221 0.0062836169655177 1:0 2:1 3:11 4:28667.256 5:5 6:24.2564 7:5 8:143.6248 9:11.2771 10:3.4004 11:2.8138 12:1.6556 13:5.1096 14:0 
-0.0303076331652519 0.01057930582796541 1:0 2:1 3:9 4:2566.626 5:4 6:49.2533 7:4 8:42.142 9:20.1728 10:5.4777 11:0 12:10.4009 13:13.2019 14:0 
-0.00911009561886476 0.001566778088354418 1:0 2:1 3:6 4:8403.909 5:5 6:111.2291 7:0 8:0 9:100 10:0.5444 11:0.5227 12:9.764 13:0.3979 14:0 
-0.03564010245616117 0.01109905427506214 1:0 2:1 3:10 4:31550.293 5:4 6:30.4927 7:4 8:3.944 9:21.0342 10:3.1442 11:0 12:2.0751 13:4.2391 14:0 
-0.02076887075802738 0.00614340286937046 1:0 2:0 3:9 4:55023.492 5:3 6:48.1052 7:4 8:21.1967 9:26.8499 10:14.4591 11:6.7962 12:0 13:0 14:0 
-0.03511082080508654 0.01045759524756814 1:0 2:1 3:9 4:29566.016 5:5 6:65.57 7:4 8:7.9904 9:37.8851 10:7.2563 11:9.3584 12:5.8125 13:5.2577 14:0 
-0.0106645912651088 0.002041625822018767 1:0 2:1 3:9 4:3900.522 5:4 6:4.5937 7:3 8:0.4386 9:1.0378 10:3.1183 11:0.1845 12:0.2532 13:0 14:0 
-0.01818361029989685 0.005976393868126151 1:0 2:0 3:8 4:21312.625 5:5 6:24.7114 7:3 8:4.9923 9:14.6803 10:7.1262 11:1.3022 12:0.8282 13:0.7745 14:0 
-0.0310287332074195 0.0103522991872641 1:0 2:1 3:8 4:3281.497 5:4 6:21.0482 7:3 8:0.9384 9:18.4716 10:0 11:1.105 12:0.8393 13:0.6323 14:0 
-0.021343369912254 0.006461951735310036 1:0 2:1 3:6 4:44856.676 5:4 6:133.1372 7:0 8:0 9:67.3226 10:0 11:44.999 12:8.195 13:12.6206 14:0 
-0.0245002870256798 0.008072580945162278 1:0 2:0 3:11 4:37845.852 5:5 6:3.9509 7:6 8:10.206 9:1.5984 10:0.6119 11:0.8476 12:0.3915 13:0.5015 14:0 
-0.03163657611767062 0.009896270596089052 1:0 2:1 3:6 4:255758.53 5:4 6:103.1784 7:0 8:0 9:100 10:1.2883 11:0.5472 12:0 13:1.3428 14:0 
-0.04207422029425573 0.01332103240679722 1:0 2:0 3:9 4:100557.23 5:5 6:32.3865 7:4 8:38.5203 9:12.9176 10:4.4901 11:3.4678 12:6.6499 13:4.8611 14:0 
-0.03070716058549633 0.009976649540777335 1:0 2:1 3:11 4:11445.737 5:3 6:9.7771 7:5 8:16.9847 9:6.6018 10:0 11:1.3675 12:0 13:1.8078 14:0 
-0.02832495753379755 0.008761757614977236 1:0 2:1 3:10 4:55498.492 5:4 6:112.6316 7:5 8:21.2936 9:8.3548 10:100 11:3.3025 12:0 13:0.9742 14:0 
-0.0221021919245121 0.01128121032131979 1:0 2:0 3:10 4:103252.05 5:5 6:53.4907 7:5 8:28.8255 9:20.9227 10:13.2783 11:3.8674 12:10.7668 13:4.6554 14:0 
-0.006525349702404801 0.001308716836650847 1:0 2:0 3:9 4:61419.383 5:3 6:90.4918 7:4 8:21.2921 9:69.5082 10:5.4943 11:0 12:15.4893 13:0 14:0 
-0.04273050835518266 0.0136762639555455 1:0 2:1 3:6 4:612219.25 5:3 6:19.3442 7:0 8:0 9:6.4664 10:0.3883 11:12.4895 12:0 13:0 14:0 
-0.02523061662322327 0.007744313003830169 1:0 2:0 3:9 4:16336.497 5:4 6:18.4921 7:4 8:2.9621 9:14.7801 10:1.2321 11:0.9935 12:1.4864 13:0 14:0 
-0.0365731938973432 0.01166153936919484 1:0 2:1 3:6 4:33748.098 5:5 6:136.4168 7:0 8:0 9:89.2744 10:16.1591 11:5.9542 12:17.8347 13:7.1945 14:0 
-0.04275537376748473 0.01340205221419044 1:0 2:1 3:6 4:614683.94 5:3 6:59.1404 7:0 8:0 9:41.6429 10:0 11:16.2511 12:0 13:1.2465 14:0 
-0 0.003993057229420459 1:0 2:0 3:10 4:50910.215 5:5 6:109.4421 7:5 8:28.3721 9:4.2788 10:0.721 11:1.0848 12:100 13:3.3574 14:0 
-0.02107262722845388 0.006942282306074465 1:0 2:1 3:7 4:5222.143 5:5 6:14.3581 7:1 8:0.1703 9:7.3235 10:0.9462 11:1.9714 12:0.5331 13:3.584 14:0 
-32 21.19679080923179 1:0 2:1 3:6 4:31.331 5:5 6:110.4943 7:0 8:0 9:100 10:4.5427 11:1.9376 12:2.0547 13:1.9593 14:0 
-32 0 1:0 2:1 3:9 4:257.826 5:4 6:27.2364 7:3 8:5.7639 9:20.825 10:3.0178 11:1.5625 12:0 13:1.8311 14:0 
-0.0423523431264502 0.01347759805554016 1:0 2:0 3:8 4:182562.98 5:3 6:26.5707 7:3 8:14.7209 9:19.7963 10:0 11:0 12:3.1342 13:3.6402 14:0 
-0.04274722160831662 0.01328252341735914 1:0 2:1 3:10 4:180613.17 5:3 6:123.4526 7:4 8:7.3839 9:100 10:0 11:0 12:1.2603 13:22.1923 14:0 
-0.02755853796223071 0.009160482789988045 1:0 2:0 3:9 4:79233.656 5:5 6:13.2654 7:4 8:110.9877 9:4.5703 10:3.6247 11:1.31 12:1.9685 13:1.792 14:0 
-0.03809560302211168 0.01192451659952437 1:0 2:0 3:8 4:10216.708 5:5 6:115.9021 7:3 8:1.4856 9:6.9409 10:100 11:6.8727 12:1.6084 13:0.4802 14:0 
-0 0.001595364956869849 1:0 2:1 3:9 4:13293.536 5:5 6:9.7738 7:4 8:15.6696 9:5.2411 10:1.3578 11:0.9677 12:1.0184 13:1.1887 14:0 
-0.01460960379599646 0.004090694445535651 1:0 2:1 3:8 4:11526.054 5:4 6:64.4726 7:2 8:59.0719 9:44.895 10:2.6457 11:3.3695 12:0 13:13.5625 14:0 
-0.03551433996805969 0.01039025788612169 1:0 2:1 3:6 4:50715.484 5:5 6:184.1846 7:0 8:0 9:36.0871 10:15.8862 11:29.3288 12:68.408 13:34.4745 14:0 
-0.03793035673033107 0.01177571981322728 1:0 2:1 3:9 4:39301.266 5:4 6:27.3871 7:3 8:1.9814 9:15.6637 10:0 11:1.4642 12:3.9283 13:6.3308 14:0 
-0.006361693039068431 0.0008338676982588278 1:0 2:0 3:8 4:14397.202 5:4 6:8.1271 7:3 8:0.919 9:5.6416 10:0 11:0.7749 12:0.8416 13:0.869 14:0 
-0.03126267568841656 0.01021273426585682 1:0 2:0 3:8 4:50286.609 5:4 6:41.4296 7:3 8:22.3195 9:13.2205 10:0 11:14.2035 12:5.6048 13:8.4009 14:0 
-0.04285033215320078 0.01360758191729067 1:0 2:1 3:6 4:317789.22 5:3 6:111.8543 7:0 8:0 9:21.2312 10:0 11:88.0137 12:2.6094 13:0 14:0 
-0.02465902865528902 0.008069245102999455 1:0 2:1 3:11 4:14563.895 5:3 6:15.145 7:5 8:48.1729 9:6.7411 10:6.19 11:0 12:0 13:2.2139 14:0 
-0.02287822079275162 0.007059247689775753 1:0 2:1 3:6 4:184595.83 5:4 6:102.7042 7:0 8:0 9:100 10:0 11:0.8741 12:1.0136 13:0.8165 14:0 
-0.02314555790005013 0.006860966764668575 1:0 2:1 3:11 4:88816.273 5:3 6:14.5718 7:5 8:23.9298 9:7.4224 10:0 11:0 12:1.7016 13:5.4477 14:0 
-0.04264527194453582 0.01357225157356207 1:0 2:1 3:6 4:246242.03 5:4 6:106.6193 7:0 8:0 9:89.6883 10:0 11:2.9262 12:11.1458 13:2.8591 14:0 
-32 0 1:0 2:1 3:10 4:350.354 5:3 6:12.1901 7:4 8:50.202 9:6.1304 10:3.6157 11:0 12:2.444 13:0 14:0 
-0.04247930770036862 0.01347851184237237 1:0 2:1 3:6 4:95981.781 5:5 6:106.8783 7:0 8:0 9:4.817 10:0.8156 11:0.6793 12:100 13:0.5663 14:0 
-0.01781097948593563 0.005832317618898232 1:0 2:0 3:10 4:50904.609 5:4 6:123.5151 7:5 8:32.2062 9:7.4953 10:100 11:11.1662 12:0 13:4.8536 14:0 
-0.03132225152797376 0.009558211283331917 1:0 2:0 3:9 4:45713.031 5:5 6:50.9405 7:4 8:17.4174 9:34.0832 10:4.4368 11:2.9475 12:4.5305 13:4.9426 14:0 
-0.04258805147515832 0.01357746023060136 1:0 2:1 3:6 4:119782.29 5:4 6:121.5488 7:0 8:0 9:100 10:11.2757 11:6.1154 12:4.1577 13:0 14:0 
-0.02906147477450299 0.008792079962075206 1:0 2:1 3:11 4:6913.649 5:3 6:89.5261 7:6 8:199.9005 9:50.5374 10:26.66 11:12.3287 12:0 13:0 14:0 
-0.01420615233525074 0.004212563543328701 1:0 2:1 3:11 4:53990.027 5:3 6:66.9336 7:5 8:104.2515 9:35.0344 10:13.6443 11:0 12:18.2549 13:0 14:0 
-0.04258736930073281 0.01312446293592706 1:0 2:1 3:6 4:211447.72 5:4 6:117.7427 7:0 8:0 9:100 10:0 11:0.6443 12:1.4285 13:15.67 14:0 
-0.04261813607537429 0.01361025036818825 1:0 2:1 3:6 4:782263.63 5:3 6:100.9003 7:0 8:0 9:100 10:0.4493 11:0 12:0.4511 13:0 14:0 
-0.01267815063245845 0.003898179171780625 1:0 2:1 3:6 4:8516.603 5:5 6:100.444 7:0 8:0 9:100 10:0.0537 11:0.1033 12:0.0595 13:0.2275 14:0 
-0.03478113640940089 0.01078992945129337 1:0 2:1 3:9 4:80425.664 5:4 6:113.715 7:4 8:19.6688 9:10.1535 10:100 11:1.3127 12:0 13:2.2488 14:0 
-32 0 1:0 2:1 3:9 4:292.231 5:3 6:86.4865 7:3 8:28.5174 9:42.2845 10:0 11:0 12:20.4738 13:23.7282 14:0 
-0.04275479078604666 0.01362016492180096 1:0 2:1 3:6 4:305335.47 5:3 6:42.8635 7:0 8:0 9:35.534 10:0 11:0 12:4.8979 13:2.4317 14:0 
-0.02872737313164425 0.009005113076097471 1:0 2:1 3:12 4:2957.205 5:5 6:29.8817 7:7 8:62.8701 9:7.1128 10:14.6715 11:1.4018 12:2.357 13:4.3387 14:0 
-0.03774355309863786 0.01114474699887874 1:0 2:0 3:8 4:33976.684 5:4 6:207.9732 7:3 8:29.9559 9:59.6362 10:15.6009 11:38.7788 12:93.9573 13:0 14:0 
-0.008975360858754718 0.003174293416374337 1:0 2:1 3:9 4:31850.867 5:5 6:65.5765 7:3 8:74.0196 9:15.8086 10:16.3053 11:3.3276 12:16.2888 13:13.8462 14:0 
-0.04275268658235948 0.01356577678897497 1:0 2:1 3:8 4:120756.54 5:4 6:28.6713 7:2 8:2.5821 9:16.9797 10:0 11:4.8903 12:2.4339 13:4.3674 14:0 
-0.04289689053218238 0.01342002999184583 1:0 2:1 3:6 4:202250.55 5:4 6:100.8305 7:0 8:0 9:100 10:0.2147 11:0 12:0.4401 13:0.1757 14:0 
-0.02914189493893948 0.009363284236409031 1:0 2:1 3:6 4:16142.125 5:5 6:202.9662 7:0 8:0 9:100 10:27.7146 11:36.5039 12:34.6171 13:4.1306 14:0 
-0.02573382689591125 0.007894653276673921 1:0 2:0 3:8 4:189879.03 5:3 6:101.6301 7:3 8:64.4678 9:51.1158 10:0 11:20.6018 12:29.9125 13:0 14:0 
-0.004987860662296172 0.002179070064642463 1:0 2:1 3:10 4:45643.207 5:5 6:78.1195 7:5 8:96.3403 9:28.7267 10:5.1612 11:8.9205 12:24.6891 13:10.622 14:0 
-0.02112518520811749 0.008178214651275884 1:0 2:0 3:10 4:43845.289 5:5 6:55.6083 7:5 8:37.2338 9:30.8049 10:4.9957 11:5.698 12:6.6319 13:7.4778 14:0 
-0.04244304569881585 0.01343206985386303 1:0 2:1 3:8 4:33419.777 5:5 6:30.1155 7:2 8:53.0785 9:14.572 10:2.2075 11:3.2628 12:4.8959 13:5.1774 14:0 
-0.01829885672346619 0.005188588300436725 1:0 2:0 3:10 4:62079.676 5:3 6:21.5248 7:5 8:19.8148 9:12.2918 10:0 11:5.6141 12:3.6189 13:0 14:0 
-0.02538850134754469 0.007576741516986136 1:0 2:1 3:6 4:51687.5 5:4 6:137.2478 7:0 8:0 9:36.4612 10:0 11:7.9441 12:17.94 13:74.9025 14:0 
-0.04264527194453566 0.01350998949699866 1:0 2:1 3:6 4:229093.13 5:4 6:111.4296 7:0 8:0 9:100 10:0 11:2.6692 12:3.4092 13:5.3512 14:0 
-0.04033523223314955 0.01224182872456547 1:0 2:0 3:8 4:125150.99 5:4 6:30.2664 7:3 8:9.4482 9:15.5625 10:4.179 11:6.5351 12:0 13:3.9898 14:0 
-0.03525889913665242 0.01152842415747529 1:0 2:0 3:9 4:62734.215 5:4 6:46.1313 7:4 8:23.3016 9:16.9789 10:7.1143 11:6.285 12:0 13:15.7532 14:0 
-0.03107357634116714 0.009408982181752318 1:0 2:1 3:11 4:53871.785 5:5 6:24.0128 7:5 8:47.0382 9:8.8571 10:0.5616 11:1.8677 12:2.6583 13:10.0681 14:0 
-0.04271817410366852 0.01331562972250894 1:0 2:0 3:9 4:156995 5:5 6:40.0737 7:4 8:107.9735 9:10.0682 10:1.6907 11:24.8732 12:0.5667 13:2.875 14:0 
-0.00969264459559872 0.002767465806136573 1:0 2:1 3:10 4:28030.783 5:3 6:26.0946 7:4 8:54.5216 9:17.2653 10:3.8083 11:5.0211 12:0 13:0 14:0 
-0.03566903261271254 0.01140292508550239 1:0 2:0 3:12 4:77067.469 5:4 6:33.975 7:7 8:138.5392 9:24.776 10:6.9912 11:0 12:1.5496 13:0.6583 14:0 
-0.04222048436332859 0.01302698008456404 1:0 2:1 3:12 4:66227.961 5:3 6:23.505 7:6 8:34.3368 9:17.4271 10:0 11:2.006 12:0 13:4.0719 14:0 
-0.04293291220574597 0.01358444926159003 1:0 2:1 3:11 4:97662 5:4 6:20.1707 7:5 8:41.39 9:11.6035 10:0.7242 11:4.0117 12:0 13:3.8314 14:0 
-0.04062277225545941 0.01271088072196636 1:0 2:0 3:11 4:124890.66 5:5 6:19.8092 7:6 8:176.3237 9:7.7577 10:4.0556 11:0.8749 12:4.8395 13:2.2814 14:0 
-0.03617651555900453 0.01123949650929915 1:0 2:0 3:12 4:101692.94 5:3 6:9.4703 7:7 8:22.7811 9:4.5905 10:2.417 11:0 12:2.4628 13:0 14:0 
-0.0232051337593253 0.00664591511760221 1:0 2:1 3:7 4:10417.223 5:4 6:29.3915 7:1 8:8.7265 9:15.5741 10:3.0553 11:3.5574 12:7.2047 13:0 14:0 
-0.04303516787026968 0.01365531900752753 1:0 2:1 3:12 4:73273.328 5:3 6:6.9732 7:6 8:149.7838 9:4.4492 10:0 11:0 12:0.348 13:2.1759 14:0 
-0.02393848059782103 0.006713479139545169 1:0 2:0 3:9 4:72747.867 5:5 6:33.152 7:4 8:85.7068 9:2.6686 10:0.4416 11:2.1055 12:0.5899 13:27.3465 14:0 
-0.03751300764179932 0.01160343189809499 1:0 2:1 3:6 4:175374.44 5:4 6:122.3057 7:0 8:0 9:13.8229 10:5.1488 11:0 12:100 13:3.334 14:0 
-32 0 1:0 2:0 3:10 4:123.708 5:5 6:22.1657 7:5 8:158.1322 9:7.1947 10:4.6361 11:2.1405 12:6.9062 13:1.2882 14:0 
-0.04067478445087103 0.01264078269488966 1:0 2:0 3:9 4:174589.89 5:3 6:5.666 7:4 8:5.0968 9:3.3896 10:0 11:0.7118 12:0 13:1.5647 14:0 
-0.02181099280227418 0.007725533306570942 1:0 2:1 3:10 4:35369.406 5:4 6:56.3499 7:5 8:21.1466 9:30.9824 10:0 11:4.4972 12:15.1943 13:5.6759 14:0 
-0.04265243182952722 0.01368399388793196 1:0 2:1 3:6 4:252526.84 5:3 6:112.207 7:0 8:0 9:100 10:0 11:7.5847 12:4.6223 13:0 14:0 
-0.02803242326628088 0.009150271143220146 1:0 2:0 3:10 4:196534.72 5:3 6:67.2701 7:5 8:78.1224 9:52.137 10:4.9583 11:0 12:10.1749 13:0 14:0 
-0.02426886223266073 0.007049492496616849 1:0 2:0 3:9 4:45536.941 5:5 6:122.7717 7:4 8:54.3191 9:48.5138 10:16.03 11:24.1899 12:16.1744 13:17.8636 14:0 
-0.03808046115139641 0.01207495485904014 1:0 2:0 3:9 4:152904.66 5:4 6:14.3044 7:4 8:59.6407 9:6.719 10:2.7158 11:1.7843 12:3.0853 13:0 14:0 
-32 3.885154972035045 1:0 2:0 3:8 4:58.27 5:4 6:173.9504 7:3 8:57.9057 9:100 10:0 11:26.8307 12:19.4458 13:27.674 14:0 
-0.02371007147898339 0.00768614630667817 1:0 2:1 3:10 4:75396.227 5:3 6:5.8955 7:4 8:4.8828 9:3.335 10:0 11:0.8133 12:1.7472 13:0 14:0 
-0.04254808578879343 0.01361095592908201 1:0 2:1 3:6 4:158034.09 5:4 6:101.5457 7:0 8:0 9:100 10:0 11:0.2491 12:0.3449 13:0.9517 14:0 
-0.03598897188790945 0.01080110147411689 1:0 2:1 3:6 4:76907.813 5:3 6:101.8416 7:0 8:0 9:100 10:0.8379 11:0 12:1.0037 13:0 14:0 
-0.04249974840111026 0.01355698970393771 1:0 2:1 3:6 4:166808.77 5:3 6:109.6535 7:0 8:0 9:5.7364 10:0 11:0 12:3.9171 13:100 14:0 
-0.03411318509213251 0.01022087947162581 1:0 2:1 3:6 4:41292.766 5:5 6:119.9665 7:0 8:0 9:100 10:7.1233 11:4.7176 12:3.4994 13:4.6262 14:0 
-0.04262644302776641 0.01365655269225341 1:0 2:0 3:9 4:198852.17 5:3 6:21.5432 7:4 8:27.4744 9:12.8178 10:0 11:0 12:3.9351 13:4.7902 14:0 
-0.01488741142529754 0.004317590557050111 1:0 2:1 3:6 4:15619.849 5:5 6:65.2816 7:0 8:0 9:49.1297 10:5.4644 11:3.1641 12:3.4276 13:4.0958 14:0 
-0.04094051334612925 0.01263035441964999 1:0 2:0 3:7 4:68323.906 5:4 6:78.4636 7:2 8:37.3801 9:41.3633 10:8.2313 11:15.7983 12:13.0707 13:0 14:0 
-0.04258503777848283 0.01365298327477366 1:0 2:0 3:8 4:22775.686 5:5 6:86.8728 7:3 8:13.4165 9:77.6259 10:1.1462 11:4.3338 12:1.537 13:2.2299 14:0 
-0.01511814630247729 0.00737498061654098 1:0 2:1 3:8 4:9409.077 5:3 6:8.7529 7:2 8:1.6098 9:5.8424 10:2.0094 11:0 12:0.9011 13:0 14:0 
-0.04285015516881746 0.01364576683296814 1:0 2:1 3:9 4:74025.281 5:4 6:37.6932 7:4 8:48.2453 9:11.3637 10:3.8616 11:20.8946 12:0 13:1.5733 14:0 
-0.02934766169525743 0.009416537267668945 1:0 2:1 3:10 4:11739.269 5:4 6:22.0805 7:4 8:36.3531 9:18.3654 10:0.596 11:0 12:0.5991 13:2.5201 14:0 
-0.03481474510010496 0.01080211583579188 1:0 2:0 3:9 4:70200.422 5:3 6:127.3025 7:4 8:74.035 9:49.6099 10:0 11:49.6825 12:28.0101 13:0 14:0 
-0.02817227081627129 0.009298147031501058 1:0 2:0 3:9 4:61338.184 5:3 6:83.3574 7:4 8:58.7547 9:47.6375 10:0 11:18.8371 12:0 13:16.8828 14:0 
-0.0302440494023305 0.009207490324156411 1:0 2:1 3:6 4:149893.69 5:4 6:152.3642 7:0 8:0 9:87.0053 10:8.0926 11:19.3324 12:0 13:37.934 14:0 
-0.04269633158528058 0.0136015609145948 1:0 2:0 3:8 4:97161.523 5:5 6:60.2316 7:3 8:63.4578 9:23.7986 10:8.7361 11:7.9915 12:14.1375 13:5.5679 14:0 
-0.00481802216884802 0.002768741143688617 1:0 2:1 3:10 4:61583.355 5:4 6:52.4377 7:4 8:60.6655 9:19.8745 10:13.7323 11:4.0051 12:14.8259 13:0 14:0 
-0.03480262914746546 0.01119046345806957 1:0 2:0 3:8 4:154692.25 5:4 6:74.5158 7:3 8:28.8001 9:42.3211 10:5.7066 11:22.9289 12:3.5593 13:0 14:0 
-0.04102301087637367 0.0129109267193438 1:0 2:1 3:6 4:480846.75 5:4 6:122.2641 7:0 8:0 9:100 10:0 11:19.1852 12:1.3868 13:1.6921 14:0 
-0.0399948003090102 0.01246891270465385 1:0 2:1 3:6 4:58818.066 5:5 6:141.5531 7:0 8:0 9:41.1664 10:77.6359 11:2.2609 12:7.8567 13:12.6331 14:0 
-0.04295183497628835 0.01341727668772874 1:0 2:0 3:10 4:195163.13 5:3 6:37.1845 7:5 8:71.3836 9:29.7907 10:2.972 11:4.4218 12:0 13:0 14:0 
-0.04275322008205029 0.013347588726753 1:0 2:1 3:6 4:185800.11 5:4 6:121.6686 7:0 8:0 9:16.2538 10:3.5148 11:1.9 12:100 13:0 14:0 
-0.01298637466913055 0.00331597751111268 1:0 2:0 3:8 4:14703.973 5:4 6:36.8141 7:3 8:9.6293 9:24.9435 10:0 11:1.6276 12:8.6937 13:1.5494 14:0 
-0.02104298097879005 0.006509373348748342 1:0 2:1 3:9 4:42656.887 5:4 6:105.9813 7:3 8:32.2255 9:20.6073 10:15.7379 11:0 12:37.8067 13:31.8294 14:0 
-1.393312590915556 0 1:0 2:1 3:6 4:476.408 5:3 6:109.774 7:0 8:0 9:100 10:0 11:0 12:4.8577 13:4.9163 14:0 
-0.03870040223725707 0.01208275927393154 1:0 2:1 3:6 4:188597.98 5:3 6:120.5843 7:0 8:0 9:100 10:0 11:6.5526 12:14.0317 13:0 14:0 
-0.03066659918929038 0.009396898649835015 1:0 2:1 3:9 4:150040.84 5:5 6:107.3221 7:3 8:31.3045 9:33.3626 10:2.8909 11:13.3775 12:43.9135 13:13.7776 14:0 
-0.03671733846749609 0.01131467037699135 1:0 2:1 3:12 4:31445.482 5:3 6:111.7992 7:6 8:197.7594 9:97.8183 10:4.0028 11:0 12:0 13:9.978 14:0 
-0.02321131432522589 0.007749177523591916 1:0 2:1 3:6 4:47525.383 5:5 6:102.8327 7:0 8:0 9:2.0109 10:100 11:0.471 12:0.1388 13:0.2119 14:0 
-0.01729952505343924 0.006335229306721238 1:0 2:1 3:10 4:29872.578 5:4 6:56.4125 7:4 8:29.2396 9:27.3747 10:6.9047 11:12.9059 12:0 13:9.2272 14:0 
-0.04256211599197413 0.01287364829516002 1:0 2:0 3:11 4:124468.7 5:4 6:37.5872 7:6 8:37.8196 9:5.8044 10:0 11:7.1408 12:8.5279 13:16.1141 14:0 
-0.0199673537989003 0.006706131838708636 1:0 2:0 3:8 4:28399.197 5:3 6:12.4049 7:3 8:12.7802 9:9.0916 10:0 11:1.2991 12:0 13:2.0142 14:0 
-0.04123183663620952 0.01294338992231527 1:0 2:1 3:6 4:63470.547 5:4 6:115.733 7:0 8:0 9:100 10:3.1381 11:10.4667 12:2.1282 13:0 14:0 
-0.02346086802029155 0.006031403167344962 1:0 2:0 3:8 4:30502.242 5:4 6:76.5059 7:3 8:17.0923 9:49.4428 10:9.5995 11:12.4941 12:0 13:4.9695 14:0 
-0.04284199526688309 0.01299189306367204 1:0 2:0 3:10 4:163046.78 5:5 6:30.6091 7:5 8:43.1638 9:13.6227 10:3.6984 11:8.1416 12:2.2905 13:2.8558 14:0 
-0.04273717422419737 0.0136757869156145 1:0 2:1 3:11 4:202758.27 5:3 6:84.8723 7:6 8:166.2608 9:72.2989 10:0 11:0 12:7.4021 13:5.1713 14:0 
-0.04254027522536152 0.01344827977738861 1:0 2:0 3:8 4:145792.63 5:4 6:29.7077 7:3 8:63.52 9:14.1795 10:0 11:4.6803 12:6.7023 13:4.1456 14:0 
-0.04274539092395263 0.01340662141228344 1:0 2:0 3:10 4:204904.42 5:3 6:8.6093 7:5 8:153.3481 9:5.1906 10:0 11:0 12:2.8302 13:0.5884 14:0 
-0.02839900568540959 0.008968627194766196 1:0 2:0 3:9 4:14756.352 5:5 6:225.3088 7:4 8:30.0086 9:77.4292 10:42.3472 11:12.7319 12:60.1423 13:32.6582 14:0 
-0.03783015180478067 0.01054552250720919 1:0 2:0 3:8 4:13229.217 5:4 6:29.5411 7:3 8:8.6328 9:14.1114 10:5.8347 11:4.0582 12:5.5369 13:0 14:0 
-0.02328570839309793 0.008434132771038938 1:0 2:1 3:10 4:30533.076 5:4 6:12.3943 7:4 8:6.4441 9:9.5944 10:0.4078 11:0.9143 12:1.4777 13:0 14:0 
-0.03983057170226623 0.01228314116279627 1:0 2:0 3:9 4:109926.59 5:4 6:29.4428 7:4 8:182.9149 9:12.449 10:7.9304 11:0.9831 12:0 13:8.0803 14:0 
-0.04260172014691543 0.0133002977491718 1:0 2:1 3:9 4:298181.16 5:3 6:51.2009 7:3 8:101.8491 9:38.9261 10:6.6976 11:5.5772 12:0 13:0 14:0 
-0.0005922424966653406 0 1:0 2:0 3:10 4:205742.22 5:5 6:38.7174 7:5 8:104.9879 9:21.5496 10:0.6186 11:5.2043 12:9.6019 13:1.743 14:0 
-0.01997195074130949 0.006271961145125571 1:0 2:1 3:10 4:27688.131 5:3 6:55.0239 7:4 8:55.631 9:25.0489 10:11.3345 11:18.6405 12:0 13:0 14:0 
-0.01673307956115109 0.004836627208332139 1:0 2:1 3:6 4:8666.825 5:5 6:100.9951 7:0 8:0 9:100 10:0.4053 11:0.1788 12:0.0713 13:0.3397 14:0 
-0.04266921904630988 0.01347042171320195 1:0 2:0 3:8 4:157598.67 5:3 6:72.6715 7:3 8:24.8621 9:23.8994 10:0 11:4.4875 12:0 13:44.2846 14:0 
-0.04272532979183535 0.01331441637230929 1:0 2:0 3:7 4:183726.7 5:3 6:10.7268 7:2 8:45.4302 9:6.0645 10:3.4707 11:0 12:0 13:1.1916 14:0 
-0.04100753189597833 0.01297534682620405 1:0 2:1 3:6 4:98971.742 5:3 6:80.6903 7:0 8:0 9:24.3886 10:21.2552 11:0 12:35.0466 13:0 14:0 
-0.0425702955974272 0.01353841443166692 1:0 2:1 3:6 4:264969.59 5:4 6:122.4799 7:0 8:0 9:100 10:0 11:6.1545 12:7.8211 13:8.5043 14:0 
-0.02588452565189087 0.008281718811725181 1:0 2:1 3:8 4:85771.805 5:4 6:56.4573 7:2 8:40.49 9:30.2348 10:12.1995 11:5.7867 12:8.2364 13:0 14:0 
-0.04104441054985447 0.01315844346889407 1:0 2:0 3:8 4:40386.969 5:4 6:26.6541 7:3 8:14.5516 9:10.425 10:11.5525 11:0 12:2.6793 13:1.9972 14:0 
-0.03378940699004596 0.01039571981288989 1:0 2:0 3:8 4:22340.547 5:3 6:8.8816 7:3 8:6.0436 9:4.9745 10:0 11:2.7056 12:1.2015 13:0 14:0 
-0.04273250153225194 0.01339729356335923 1:0 2:1 3:6 4:170015.44 5:4 6:171.964 7:0 8:0 9:84.7479 10:55.0211 11:16.7525 12:0 13:15.4426 14:0 
-0.04105291040568299 0.01279233741420838 1:0 2:1 3:6 4:480519.44 5:3 6:114.8735 7:0 8:0 9:74.3317 10:0 11:0 12:30.6501 13:9.8917 14:0 
-0.02370580291812774 0.007570266388736091 1:0 2:1 3:13 4:6685.722 5:4 6:40.4704 7:8 8:178.8429 9:24.8224 10:4.8797 11:6.6407 12:0 13:4.1276 14:0 
-0.03660788969876039 0.01133292400706404 1:0 2:1 3:12 4:26007.645 5:4 6:40.0298 7:6 8:158.9978 9:26.8887 10:0 11:5.5368 12:3.7845 13:3.8198 14:0 
-0.03747990919809552 0.0111731913703792 1:0 2:0 3:10 4:205646.67 5:5 6:32.7057 7:5 8:179.8342 9:15.1051 10:0.5741 11:1.4515 12:5.9698 13:9.6052 14:0 
-0.03701070976610865 0.01135273262653735 1:0 2:1 3:10 4:18741.607 5:5 6:151.1895 7:4 8:161.0025 9:65.1537 10:12.8994 11:21.9694 12:36.9103 13:14.2568 14:0 
-0.02846124411541683 0.008567701328492999 1:0 2:0 3:12 4:147662.55 5:3 6:36.22 7:7 8:48.4924 9:22.2311 10:5.6319 11:8.357 12:0 13:0 14:0 
-0.01487749537639588 0.004217438208186153 1:0 2:1 3:8 4:11917.127 5:3 6:128.4646 7:2 8:6.022 9:100 10:3.0399 11:25.4246 12:0 13:0 14:0 
-0.04240398839767068 0.01344876701150732 1:0 2:0 3:10 4:65533.172 5:3 6:85.826 7:5 8:96.3567 9:33.8322 10:30.5129 11:21.4809 12:0 13:0 14:0 
-0.02141620893392768 0.006925543245407284 1:0 2:1 3:6 4:8234.126 5:4 6:103.5629 7:0 8:0 9:100 10:2.6997 11:0.3015 12:0.5617 13:0 14:0 
-0.02846752793196522 0.008801298099809018 1:0 2:0 3:7 4:303059.88 5:4 6:47.4259 7:2 8:11.6924 9:8.6017 10:1.4775 11:33.8727 12:0 13:3.4741 14:0 
-0.003391866103478025 0.0006674249288120548 1:0 2:1 3:6 4:28346.033 5:5 6:56.63 7:0 8:0 9:6.8694 10:5.7138 11:1.7773 12:3.9882 13:38.2813 14:0 
-0.01511861013695712 0.004416954769300067 1:0 2:0 3:10 4:28350.84 5:3 6:51.4717 7:5 8:76.6713 9:34.9564 10:3.8312 11:12.6841 12:0 13:0 14:0 
-0.02460647512677372 0.007043455414747102 1:0 2:1 3:7 4:101441.55 5:5 6:167.7032 7:1 8:17.6192 9:80.1391 10:17.725 11:15.3228 12:12.5896 13:41.9266 14:0 
-0.04256573674003594 0.01350918996397532 1:0 2:0 3:5 4:34893.574 5:3 6:145.5211 7:0 8:0 9:52.1382 10:0 11:0 12:75.8928 13:17.4901 14:0 
-0.02431410381090233 0.007683266498857577 1:0 2:1 3:10 4:25347.168 5:3 6:57.5456 7:5 8:54.4614 9:29.8882 10:18.8966 11:0 12:8.7608 13:0 14:0 
-0.03922534457550292 0.01254901433409827 1:0 2:1 3:6 4:53317.539 5:4 6:115.0075 7:0 8:0 9:100 10:2.7287 11:5.2112 12:7.0676 13:0 14:0 
-0.0249408478424283 0.008624839771521072 1:0 2:1 3:9 4:72795.859 5:3 6:25.9219 7:3 8:8.1608 9:15.1113 10:3.2472 11:7.5634 12:0 13:0 14:0 
-0.03565839363941153 0.0109269945379849 1:0 2:1 3:6 4:916.041 5:4 6:104.9914 7:0 8:0 9:100 10:2.9162 11:0.9887 12:0 13:1.0866 14:0 
-0.03572758640415019 0.01102831261804027 1:0 2:1 3:6 4:57923.215 5:5 6:124.3014 7:0 8:0 9:13.1372 10:100 11:0.9562 12:3.6573 13:6.5506 14:0 
-0.02393434387056792 0.007179025285699692 1:0 2:0 3:9 4:2858.232 5:3 6:107.9596 7:4 8:32.7553 9:72.6199 10:0 11:0 12:30.2521 13:5.0877 14:0 
-0.0263736453502611 0.007939056756672345 1:0 2:0 3:9 4:108693.26 5:4 6:114.0872 7:4 8:70.6938 9:32.8126 10:39.8524 11:12.8982 12:28.524 13:0 14:0 
-0.01961902219272192 0.005502273425039894 1:0 2:1 3:8 4:15620.779 5:5 6:35.2567 7:2 8:34.3991 9:14.4308 10:3.5575 11:8.6331 12:4.7151 13:3.9203 14:0 
-0.005972448010500893 0.001270080950515506 1:0 2:1 3:9 4:11872.811 5:4 6:135.6705 7:3 8:18.0352 9:26.4685 10:69.1661 11:13.6616 12:26.3744 13:0 14:0 
-0.04275729418892771 0.01331918920941411 1:0 2:0 3:7 4:203684.16 5:3 6:72.8747 7:2 8:15.0342 9:41.6573 10:0 11:0 12:15.2904 13:15.927 14:0 
-0.04275268658066211 0.01292688965013245 1:0 2:1 3:6 4:140038.56 5:4 6:52.7116 7:0 8:0 9:15.3135 10:8.6155 11:24.1521 12:4.6305 13:0 14:0 
-0.03107740001211273 0.009430035130530701 1:0 2:0 3:8 4:21161.619 5:3 6:118.1643 7:3 8:41.4828 9:86.827 10:22.9642 11:0 12:8.3731 13:0 14:0 
-0.04101378211199819 0.01273113414651145 1:0 2:1 3:6 4:100947.49 5:3 6:64.6548 7:0 8:0 9:54.6095 10:0 11:2.6304 12:0 13:7.4149 14:0 
-0.01958519754311361 0.006285461964970911 1:0 2:1 3:9 4:46232.699 5:4 6:51.1821 7:3 8:145.1151 9:17.6254 10:0 11:12.6972 12:13.3762 13:7.4834 14:0 
-0.04292224635492065 0.01330039856713555 1:0 2:1 3:6 4:393284 5:3 6:42.0527 7:0 8:0 9:36.7606 10:3.9287 11:1.3634 12:0 13:0 14:0 
-0.003749148778221908 0.00426109480440435 1:0 2:1 3:8 4:3774.667 5:4 6:28.7185 7:2 8:2.7379 9:19.6914 10:4.0354 11:3.5374 12:1.4543 13:0 14:0 
-0.003894068912648541 0.001015415400463644 1:0 2:1 3:6 4:56748.277 5:3 6:57.652 7:0 8:0 9:53.5881 10:2.0808 11:0 12:1.983 13:0 14:0 
-0.04294929623997346 0.01349608718568085 1:0 2:1 3:6 4:477115.84 5:3 6:93.4 7:0 8:0 9:90.8791 10:1.7424 11:0.7785 12:0 13:0 14:0 
-0.03962133612183039 0.01272671971572831 1:0 2:0 3:9 4:147353.89 5:4 6:61.736 7:4 8:129.2339 9:20.0971 10:0 11:26.0401 12:6.4042 13:9.1946 14:0 
-0.04271437268989636 0.01359310963239485 1:0 2:1 3:8 4:357931.09 5:3 6:19.139 7:2 8:10.9514 9:9.6319 10:0 11:0 12:4.9054 13:4.6017 14:0 
-0 0.0002938671241260382 1:0 2:0 3:7 4:16294.032 5:3 6:36.8559 7:2 8:5.2752 9:17.6521 10:0 11:14.2593 12:0 13:4.9446 14:0 
-0.04256000308317776 0.01362361812761287 1:0 2:1 3:6 4:24936.109 5:3 6:16.2561 7:0 8:0 9:7.6209 10:0 11:0 12:5.4802 13:3.1551 14:0 
-0.03853868792356641 0.01170827917195277 1:0 2:0 3:7 4:152737.59 5:3 6:194.4482 7:2 8:60.5178 9:91.4077 10:0 11:61.4484 12:41.5921 13:0 14:0 
-32 0 1:0 2:1 3:6 4:65.983 5:3 6:105.6212 7:0 8:0 9:100 10:2.9117 11:0 12:0 13:2.7096 14:0 
-0.0002397200277124382 0.004035543879595521 1:0 2:0 3:8 4:8412.444 5:4 6:36.2068 7:3 8:7.8469 9:17.3155 10:1.1105 11:15.7288 12:0 13:2.052 14:0 
-0.04319391351651003 0.01336055092113142 1:0 2:1 3:6 4:112385.23 5:4 6:76.4596 7:0 8:0 9:26.2738 10:17.1995 11:0 12:22.9621 13:10.0242 14:0 
-0.0423086362474584 0.01320919907704465 1:0 2:0 3:8 4:119324.31 5:3 6:47.5847 7:3 8:4.7095 9:40.2127 10:2.143 11:5.2291 12:0 13:0 14:0 
-0.03863328996753074 0.01203347068753485 1:0 2:1 3:6 4:196859.16 5:3 6:17.7322 7:0 8:0 9:8.3764 10:3.4053 11:5.9505 12:0 13:0 14:0 
-0.008029798870537602 0.002340541336131537 1:0 2:1 3:6 4:52025.012 5:4 6:49.145 7:0 8:0 9:21.2667 10:11.9495 11:9.9454 12:5.9834 13:0 14:0 
-0.04272297483954252 0.01358733631962372 1:0 2:1 3:6 4:350270.81 5:3 6:27.7307 7:0 8:0 9:18.3118 10:0 11:4.3447 12:0 13:5.0742 14:0 
-0.01809031250935763 0.005998300576059264 1:0 2:1 3:9 4:45200.754 5:4 6:19.1552 7:3 8:4.0112 9:7.5834 10:1.5206 11:0 12:5.7611 13:4.2902 14:0 
-0.0422105840673615 0.0133633200110731 1:0 2:1 3:6 4:146207.52 5:3 6:33.3128 7:0 8:0 9:28.5823 10:0 11:2.5346 12:0 13:2.196 14:0 
-0.030389250820479 0.009112390942831446 1:0 2:0 3:5 4:185055.34 5:3 6:154.7916 7:0 8:0 9:30.705 10:0 11:90.2013 12:33.8854 13:0 14:0 
-0.04274685500794728 0.01328687986100563 1:0 2:1 3:6 4:320121.06 5:3 6:21.7891 7:0 8:0 9:9.7169 10:2.2462 11:0 12:9.826 13:0 14:0 
-0.04265683645140311 0.01358260759977314 1:0 2:0 3:5 4:573319.81 5:3 6:92.6918 7:0 8:0 9:46.2082 10:0 11:19.3455 12:27.1381 13:0 14:0 
-0.01566652198254087 0.005222488634447504 1:0 2:1 3:6 4:101550.15 5:3 6:104.4558 7:0 8:0 9:100 10:3.312 11:1.1438 12:0 13:0 14:0 
-0.04260112736274696 0.01358822936421256 1:0 2:1 3:6 4:459011.59 5:3 6:21.3907 7:0 8:0 9:18.3003 10:1.0926 11:1.9979 12:0 13:0 14:0 
-3.585732274118375 -0 1:1 2:0 3:6 4:1.029 5:5 6:258.0667 7:1 8:29.7063 9:100 10:25.9912 11:45.5993 12:44.6034 13:41.8727 14:1 
-32 -0 1:1 2:1 3:10 4:2.205 5:5 6:13.8985 7:4 8:145.9364 9:6.5332 10:1.9376 11:0.9071 12:1.9765 13:2.544 14:1 
-32 -0 1:1 2:1 3:10 4:3.796 5:5 6:13.5869 7:4 8:154.1694 9:5.1649 10:1.6519 11:0.9866 12:4.0346 13:1.7488 14:1 
-32 -0 1:1 2:1 3:10 4:1.307 5:5 6:7.6423 7:4 8:141.5629 9:4.1796 10:1.0851 11:0.1875 12:1.0565 13:1.1337 14:1 
-26.78177967450852 -2.536150278876681 1:1 2:0 3:9 4:2.96 5:5 6:10.8119 7:4 8:208.8409 9:4.27 10:1.6426 11:1.3843 12:0.3937 13:3.1212 14:1 
-32 -0 1:1 2:0 3:9 4:2.999 5:5 6:18.4287 7:4 8:157.0014 9:7.9958 10:1.7064 11:2.3535 12:0.6724 13:5.7006 14:1 
-32 -3.840602302269751 1:1 2:0 3:10 4:5.494 5:4 6:13.4813 7:5 8:98.5574 9:6.6449 10:1.9804 11:2.2878 12:2.5682 13:0 14:1 
-32 -2.123637685839326 1:1 2:0 3:6 4:7.712 5:5 6:52.7498 7:1 8:2.6196 9:15.7501 10:4.8472 11:3.4641 12:12.6134 13:16.0751 14:1 
-32 -0.1898483600702297 1:1 2:1 3:9 4:3.009 5:5 6:75.4059 7:4 8:255.483 9:42.6707 10:9.3333 11:7.6043 12:8.2547 13:7.5429 14:1 
-32 -0 1:1 2:0 3:5 4:2.195 5:5 6:56.8864 7:0 8:0 9:11.4082 10:12.3888 11:11.6846 12:16.3258 13:5.079 14:1 
-6.448559376709398 -0 1:1 2:0 3:8 4:2.573 5:5 6:162.8276 7:3 8:101.7955 9:12.6403 10:41.1674 11:31.7669 12:31.1764 13:46.0766 14:1 
-3.842332287664291 -1.382975039285181 1:1 2:0 3:8 4:3.4 5:5 6:348.8625 7:3 8:188.4968 9:91.9936 10:23.9477 11:55.8961 12:77.0251 13:100 14:1 
-32 -8.105860687548523 1:1 2:0 3:5 4:6.133 5:5 6:144.9712 7:0 8:0 9:100 10:15.2765 11:9.9488 12:11.6059 13:8.1399 14:1 
-3.997405372059101 -1.300606597880302 1:1 2:0 3:10 4:5.51 5:5 6:246.4748 7:5 8:330.876 9:71.5792 10:24.0418 11:28.1012 12:78.0902 13:44.6624 14:1 
-0 -0.05254397522637692 1:1 2:0 3:9 4:5.059 5:4 6:216.4709 7:4 8:240.9328 9:70.0584 10:24.8605 11:38.9806 12:0 13:82.5715 14:1 
-32 -0 1:1 2:0 3:8 4:4.288 5:5 6:80.3776 7:3 8:65.1643 9:20.9358 10:5.8084 11:13.3735 12:14.2522 13:26.0077 14:1 
-32 -0 1:1 2:0 3:7 4:0.284 5:5 6:68.02 7:2 8:10.395 9:46.1848 10:4.4477 11:4.6316 12:8.5509 13:4.2051 14:1 
-8.47664348919924 -0 1:1 2:0 3:7 4:5.581 5:5 6:77.538 7:2 8:49.3992 9:12.2399 10:13.9853 11:14.0819 12:16.584 13:20.6469 14:1 
-32 -0 1:1 2:0 3:9 4:2.925 5:5 6:27.4452 7:4 8:117.7297 9:2.3812 10:6.2267 11:8.2211 12:7.3371 13:3.2791 14:1 
-32 -0 1:1 2:0 3:7 4:4.123 5:5 6:46.0412 7:2 8:23.9503 9:4.6145 10:9.263 11:7.5416 12:10.2465 13:14.3756 14:1 
-32 -0 1:1 2:0 3:9 4:1.875 5:5 6:186.1308 7:4 8:136.4918 9:72.0851 10:22.223 11:32.8655 12:22.5155 13:36.4417 14:1 
-12.79430077433261 -0 1:1 2:0 3:7 4:5.449 5:5 6:169.8204 7:2 8:60.8127 9:21.4244 10:24.2457 11:21.9436 12:50.5383 13:51.6684 14:1 
-32 -0.4282403284966031 1:1 2:0 3:6 4:2.016 5:5 6:9.9265 7:1 8:0.5986 9:3.4059 10:1.0429 11:1.1822 12:1.5959 13:2.6996 14:1 
-32 -11.78444263694234 1:1 2:0 3:10 4:5.178 5:5 6:132.4552 7:5 8:23.4525 9:100 10:13.8075 11:5.5673 12:6.9186 13:6.1617 14:1 
-32 -0 1:1 2:0 3:8 4:6.534 5:4 6:109.0326 7:3 8:53.0915 9:33.4427 10:15.703 11:0 12:29.4578 13:30.429 14:1 
-15.1646822691243 -0 1:1 2:0 3:9 4:0.229 5:5 6:126.1656 7:4 8:71.1558 9:85.2234 10:9.8103 11:7.7852 12:11.326 13:12.0207 14:1 
-32 -0 1:1 2:0 3:8 4:1.981 5:3 6:10.7585 7:3 8:0.7766 9:3.3932 10:6.9409 11:0.4244 12:0 13:0 14:1 
-32 -0 1:1 2:0 3:9 4:0.386 5:5 6:104.3729 7:4 8:19.214 9:79.3745 10:3.4792 11:5.6944 12:7.2725 13:8.5524 14:1 
-16.86266104063531 -2.923389229153217 1:1 2:0 3:6 4:3.767 5:5 6:136.3162 7:1 8:5.0737 9:100 10:14.4329 11:6.7347 12:5.4814 13:9.6673 14:1 
-32 -2.2124577455508 1:1 2:0 3:7 4:4.1 5:4 6:24.3525 7:2 8:6.7278 9:10.5474 10:5.019 11:3.906 12:0 13:4.8801 14:1 
