svm_type c_svc
kernel_type rbf
gamma 3.05176e-005
nr_class 2
total_sv 111
rho 7.09279
label 1 0
probA -1.17533
probB 0.292177
nr_sv 55 56
SV
325.8010193642478 1:1 2:0 3:8 4:3.082 5:2 6:113.2691 7:67.4692 8:22.9891 9:32.2337 10:38.7663 11:66.5488 
1407.794129197929 1:1 2:0 3:7 4:3.189 5:1 6:29.7063 7:100 8:25.9912 9:45.5993 10:44.6034 11:41.8727 
2048 1:1 2:0 3:9 4:4.298 5:3 6:22.6629 7:100 8:0 9:13.9579 10:12.5332 11:14.383 
528.7213875384681 1:1 2:1 3:14 4:3.504 5:6 6:207.3364 7:6.4835 8:0.2359 9:2.4296 10:4.2722 11:0.7513 
2048 1:1 2:1 3:11 4:0.871 5:4 6:141.5629 7:4.1796 8:1.0851 9:0.1875 10:1.0565 11:1.1337 
2048 1:1 2:0 3:10 4:2.795 5:4 6:23.5765 7:7.713 8:9.5475 9:7.1267 10:8.4248 11:5.779 
2048 1:1 2:0 3:6 4:1.587 5:0 6:0 7:2.4418 8:0 9:0.4159 10:0.5848 11:0 
2048 1:1 2:0 3:8 4:2.1 5:2 6:22.1612 7:8.7389 8:16.048 9:8.8453 10:11.0584 11:11.6179 
190.0766882012971 1:1 2:0 3:9 4:0.245 5:3 6:144.0956 7:2.2119 8:1.6053 9:2.0111 10:2.4992 11:3.317 
44.97427914831476 1:1 2:0 3:7 4:1.26 5:1 6:80.7787 7:6.5691 8:32.0495 9:14.0912 10:46.2963 11:100 
1342.513307933016 1:1 2:0 3:11 4:4.367 5:3 6:104.9251 7:6.6449 8:1.9804 9:2.2878 10:2.5682 11:0 
1645.048374631299 1:1 2:0 3:10 4:2.202 5:4 6:90.2268 7:100 8:21.0976 9:26.1723 10:30.0428 11:30.4333 
496.4460333691974 1:1 2:0 3:9 4:8.156 5:3 6:39.7961 7:100 8:20.9112 9:15.8342 10:22.2011 11:29.8826 
1954.866693642054 1:1 2:0 3:8 4:3.715 5:2 6:33.2123 7:10.2591 8:11.0858 9:10.7105 10:11.6115 11:15.8799 
2048 1:1 2:0 3:8 4:3.293 5:1 6:14.7111 7:100 8:0 9:22.2616 10:10.9589 11:21.8743 
1057.012115207635 1:1 2:0 3:9 4:0.137 5:3 6:67.305 7:0.7076 8:1.1581 9:14.7467 10:9.2208 11:7.6816 
1075.852459650619 1:1 2:0 3:8 4:1.931 5:2 6:41.3306 7:100 8:43.4698 9:39.0446 10:25.7905 11:31.075 
179.4966598506666 1:1 2:0 3:6 4:1.113 5:0 6:0 7:100 8:29.3618 9:17.171 10:19.3854 11:13.0903 
2048 1:1 2:0 3:10 4:2.875 5:4 6:22.9249 7:0.4839 8:4.836 9:5.6823 10:6.4946 11:6.4022 
168.9134884213192 1:1 2:0 3:9 4:0.919 5:3 6:101.7955 7:12.6403 8:41.1674 9:31.7669 10:31.1764 11:46.0766 
14.79668133068734 1:1 2:0 3:9 4:1.746 5:3 6:188.4968 7:91.9936 8:23.9477 9:55.8961 10:77.0251 11:100 
2048 1:1 2:0 3:8 4:0.294 5:2 6:32.9868 7:5.3875 8:17.3242 9:13.2972 10:14.3686 11:19.7422 
995.4679601329799 1:1 2:0 3:6 4:7.759 5:0 6:0 7:8.898 8:11.5411 9:33.5723 10:48.1726 11:46.0421 
2048 1:1 2:0 3:10 4:1.311 5:4 6:12.6888 7:7.1117 8:7.1441 9:3.2233 10:4.1725 11:3.6581 
2048 1:1 2:0 3:11 4:3.114 5:5 6:21.507 7:8.3849 8:4.3858 9:8.8655 10:6.541 11:6.541 
2048 1:1 2:0 3:8 4:6.143 5:1 6:2.8028 7:12.36 8:2.7834 9:3.2484 10:4.1539 11:4.9792 
272.1920012690876 1:1 2:0 3:9 4:5.26 5:3 6:69.7332 7:84.429 8:11.514 9:24.7971 10:48.9868 11:31.8974 
433.605568823988 1:1 2:0 3:9 4:5.991 5:3 6:173.4927 7:5.4155 8:6.0797 9:10.3571 10:13.0683 11:47.8126 
334.2327026470851 1:1 2:0 3:9 4:2.041 5:3 6:32.1989 7:100 8:33.2953 9:30.3722 10:16.8989 11:15.902 
1632.031864070209 1:1 2:0 3:6 4:2.716 5:0 6:0 7:22.6214 8:18.4954 9:28.0245 10:39.141 11:14.5782 
19.19436609858635 1:1 2:0 3:7 4:1.176 5:1 6:1.7041 7:100 8:29.8724 9:18.4251 10:11.4541 11:5.3589 
258.9028818377119 1:1 2:0 3:8 4:2.694 5:2 6:102.139 7:62.7564 8:0 9:55.7034 10:51.7673 11:59.0906 
744.2180331319535 1:1 2:0 3:8 4:5.774 5:2 6:73.1178 7:81.1801 8:24.0345 9:29.6484 10:33.9076 11:54.58 
625.784268509805 1:1 2:0 3:9 4:1.538 5:3 6:124.2504 7:100 8:31.0423 9:26.1621 10:48.5212 11:75.775 
74.0442015731051 1:1 2:0 3:7 4:2.261 5:1 6:13.8167 7:100 8:11.1221 9:28.4532 10:31.1551 11:20.9876 
160.394039065307 1:1 2:0 3:9 4:0.73 5:3 6:56.2053 7:12.3797 8:47.5462 9:19.4508 10:23.4579 11:38.7591 
941.1343979276581 1:1 2:0 3:8 4:2.847 5:0 6:0 7:100 8:2.3144 9:0.4972 10:0.2812 11:0 
307.3037651869959 1:1 2:0 3:7 4:2.642 5:1 6:2.0863 7:100 8:21.6314 9:17.9891 10:12.5503 11:12.1382 
381.1574020780623 1:0 2:0 3:11 4:208.538 5:5 6:25.198 7:47.2422 8:8.571 9:6.371 10:8.4423 11:6.1481 
2048 1:1 2:0 3:10 4:1.029 5:4 6:24.5857 7:3.8724 8:14.0459 9:8.9496 10:12.3019 11:9.0203 
2048 1:1 2:0 3:7 4:3.7 5:1 6:26.3809 7:13.2161 8:14.1343 9:13.7912 10:20.9651 11:27.5518 
2048 1:1 2:0 3:7 4:3.7 5:1 6:11.32 7:0 8:23.4416 9:20.3553 10:12.975 11:15.0633 
104.3082835831923 1:1 2:0 3:8 4:5.535 5:2 6:60.8127 7:21.4244 8:24.2457 9:21.9436 10:50.5383 11:51.6684 
788.2125224062172 1:0 2:0 3:10 4:68.751 5:4 6:32.1364 7:100 8:11.7354 9:9.2743 10:3.4222 11:8.8985 
834.7432303054563 1:0 2:0 3:8 4:226.182 5:2 6:14.322 7:100 8:13.475 9:8.6795 10:9.9429 11:10.3289 
430.8348423233174 1:0 2:0 3:8 4:98.611 5:2 6:2.3322 7:100 8:8.4683 9:2.5139 10:5.1845 11:1.655 
2048 1:1 2:0 3:8 4:4.329 5:2 6:0.8487 7:2.8379 8:0 9:0 10:15.4103 11:1.1641 
2048 1:1 2:0 3:7 4:5.689 5:1 6:7.5764 7:14.7615 8:7.738 9:8.5002 10:11.5359 11:12.5003 
1398.313174285084 1:1 2:0 3:6 4:4.032 5:0 6:0 7:47.5314 8:26.7418 9:21.0196 10:37.5971 11:37.4065 
632.2400444951031 1:1 2:0 3:8 4:7.509 5:2 6:1.0969 7:100 8:13.4562 9:6.8046 10:1.9526 11:1.5613 
39.81081807367617 1:1 2:0 3:10 4:4.265 5:3 6:10.9232 7:100 8:0 9:7.7947 10:4.7378 11:6.3308 
2048 1:1 2:0 3:9 4:5.051 5:3 6:9.1552 7:0.6567 8:4.9531 9:2.9373 10:4.2014 11:2.8068 
14.6279931699871 1:1 2:0 3:10 4:3.479 5:4 6:76.1432 7:100 8:9.6166 9:0 10:28.2353 11:26.7202 
924.5772451770847 1:0 2:1 3:9 4:82.565 5:2 6:72.2838 7:15.8086 8:16.3053 9:3.3276 10:16.2888 11:13.8462 
267.5808802888299 1:1 2:0 3:10 4:1.463 5:3 6:71.8505 7:100 8:29.6828 9:24.1899 10:28.655 11:27.9883 
-2048 1:1 2:0 3:8 4:0.096 5:2 6:113.2691 7:67.4692 8:22.9891 9:32.2337 10:38.7663 11:66.5488 
-2048 1:1 2:0 3:7 4:0.206 5:1 6:29.7063 7:100 8:25.9912 9:45.5993 10:44.6034 11:41.8727 
-2.237393583705452 1:1 2:0 3:10 4:308.213 5:4 6:57.339 7:6.5332 8:1.9376 9:0.9071 10:1.9765 11:2.544 
-83.00413501441302 1:0 2:0 3:10 4:141.206 5:4 6:55.289 7:6.5332 8:1.9376 9:0.9071 10:1.9765 11:2.544 
-2048 1:1 2:0 3:7 4:4.612 5:1 6:16.5636 7:19.2127 8:19.1498 9:14.013 10:20.3291 11:19.9033 
-1036.441792433261 1:1 2:1 3:12 4:2.307 5:5 6:66.3641 7:0 8:0.113 9:0.1358 10:0 11:0.0943 
-67.62279491489508 1:0 2:0 3:7 4:2.977 5:1 6:0.7279 7:2.0542 8:0.1312 9:0.6699 10:26.8642 11:100 
-2048 1:1 2:0 3:6 4:6.822 5:0 6:0 7:28.0334 8:28.512 9:23.2076 10:36.516 11:28.665 
-398.9977982021214 1:1 2:0 3:11 4:8.15 5:5 6:162.702 7:0.3827 8:7.9958 9:0.3648 10:0 11:0.7438 
-2048 1:1 2:0 3:10 4:4.577 5:4 6:39.1572 7:0.8839 8:8.7699 9:0.2635 10:0.8458 11:0 
-1596.249880388891 1:1 2:0 3:9 4:6.681 5:3 6:33.7792 7:1.3128 8:8.7389 9:0 10:0.3463 11:0.1726 
-2048 1:1 2:0 3:10 4:1.546 5:2 6:20.512 7:0 8:0 9:10.5402 10:13.8055 11:18.0914 
-1527.074072056389 1:0 2:0 3:13 4:2.127 5:5 6:149.6549 7:0 8:0.4865 9:0.4735 10:1.109 11:2.9644 
-883.2236970437192 1:1 2:0 3:12 4:0.07 5:6 6:13.2649 7:0 8:0 9:1.0882 10:1.7385 11:7.4958 
-2048 1:1 2:0 3:10 4:7.821 5:4 6:90.2268 7:100 8:21.0976 9:26.1723 10:30.0428 11:30.4333 
-2048 1:1 2:0 3:9 4:2.319 5:3 6:39.7961 7:100 8:20.9112 9:15.8342 10:22.2011 11:29.8826 
-2048 1:1 2:0 3:8 4:7.347 5:2 6:33.2123 7:10.2591 8:11.0858 9:10.7105 10:11.6115 11:15.8799 
-2048 1:1 2:0 3:8 4:7.769 5:2 6:16.0356 7:100 8:0 9:22.2616 10:10.9589 11:21.8743 
-2048 1:1 2:0 3:9 4:0.084 5:3 6:5.2988 7:0 8:0 9:1.4462 10:2.0351 11:1.3447 
-52.64461541315644 1:0 2:0 3:10 4:126.12 5:4 6:74.9866 7:0.7754 8:0.3987 9:1.1581 10:14.7467 11:9.2208 
-68.64639143652144 1:0 2:0 3:10 4:0.286 5:4 6:98.1961 7:0.5581 8:0 9:100 10:8.432 11:1.9716 
-47.04051588635868 1:0 2:0 3:9 4:155.998 5:3 6:72.4056 7:11.6656 8:100 9:8.432 10:1.9716 11:0 
-126.4281808727695 1:0 2:1 3:6 4:278.058 5:0 6:0 7:100 8:29.3618 9:17.171 10:19.3854 11:13.0903 
-185.120049117633 1:0 2:0 3:7 4:97.594 5:1 6:21.7043 7:69.0644 8:0.4983 9:20.0199 10:18.3076 11:26.4174 
-115.2646598106172 1:0 2:0 3:5 4:221.347 5:0 6:0 7:100 8:36.81 9:15.7012 10:24.2929 11:0 
-697.2607158170979 1:1 2:0 3:8 4:2.113 5:2 6:3.9574 7:3.4072 8:3.8857 9:7.3234 10:0 11:4.3789 
-2048 1:1 2:0 3:6 4:1.038 5:0 6:0 7:7.6007 8:0 9:3.0619 10:3.255 11:0 
-927.7998712623883 1:0 2:0 3:8 4:195.732 5:2 6:10.7929 7:100 8:7.2294 9:0 10:0 11:3.4958 
-38.13394611595211 1:1 2:0 3:9 4:3.207 5:3 6:161.2296 7:1.4124 8:62.7564 9:2.8478 10:1.2679 11:0 
-377.4447935540569 1:0 2:1 3:9 4:98.537 5:2 6:73.1178 7:92.0578 8:2.9566 9:1.2824 10:0 11:0 
-2048 1:1 2:0 3:9 4:0.3 5:3 6:36.3454 7:4.1402 8:22.4988 9:24.0173 10:21.5689 11:19.6928 
-2048 1:1 2:0 3:7 4:1.747 5:1 6:2.0431 7:4.668 8:17.8264 9:12.6948 10:17.0534 11:16.5524 
-2048 1:0 2:0 3:7 4:5.812 5:1 6:0.1767 7:92.1633 8:0.9365 9:4.4193 10:0.4744 11:0 
-2048 1:1 2:0 3:9 4:1.029 5:3 6:14.976 7:0.546 8:8.9496 9:12.3019 10:9.0203 11:9.6097 
-49.80543411639896 1:1 2:0 3:8 4:2.057 5:2 6:0.1539 7:0 8:9.0203 9:6.4987 10:0.3484 11:0 
-2048 1:1 2:0 3:8 4:3.636 5:2 6:27.0179 7:2.9538 8:23.5813 9:14.9549 10:26.4001 11:19.9702 
-1299.244905221062 1:0 2:1 3:9 4:0.331 5:1 6:100 7:0 8:0 9:0.1879 10:0.2165 11:0.5303 
-1026.889805321428 1:1 2:0 3:9 4:1.758 5:3 6:5.4333 7:1.2566 8:0 9:1.9813 10:5.075 11:5.1845 
-653.023560865948 1:1 2:0 3:6 4:4.467 5:0 6:0 7:5.7969 8:23.3394 9:27.348 10:15.7622 11:1.7387 
-14.16822284520283 1:0 2:1 3:6 4:284.349 5:0 6:0 7:100 8:10.7428 9:8.1505 10:9.0122 11:6.445 
-2048 1:1 2:0 3:8 4:4.44 5:1 6:2.1492 7:11.7566 8:4.2704 9:0 10:0 11:3.5576 
-875.2937158151834 1:1 2:0 3:10 4:7.623 5:3 6:8.1254 7:0 8:5.6388 9:4.7352 10:20.4157 11:7.3727 
-14.30395628183296 1:0 2:0 3:13 4:153.807 5:6 6:64.2167 7:0 8:0 9:0.9925 10:1.2278 11:100 
-10.16855956588974 1:0 2:0 3:12 4:213.936 5:6 6:56.8072 7:6.1119 8:0.9925 9:1.2278 10:100 11:4.0761 
-51.32644730108748 1:0 2:0 3:11 4:151.969 5:3 6:86.28 7:6.7302 8:2.7382 9:1.0615 10:6.55 11:1.8949 
-302.0850509812524 1:0 2:1 3:12 4:24.758 5:5 6:160.3922 7:6.7183 8:2.2261 9:4.3406 10:26.4941 11:0 
-2048 1:1 2:0 3:10 4:3.801 5:4 6:27.8341 7:100 8:22.5226 9:18.9375 10:11.1069 11:11.1804 
-234.1845427459706 1:0 2:0 3:9 4:206.367 5:3 6:40.5152 7:19.8443 8:20.4664 9:23.723 10:22.8916 11:27.9956 
-2048 1:0 2:0 3:8 4:7.215 5:2 6:21.2664 7:5.2803 8:4.8004 9:11.3177 10:18.8702 11:17.9491 
-5.459678080866205 1:0 2:0 3:9 4:10.665 5:3 6:94.6449 7:0 8:0 9:19.6653 10:30.02 11:98.0992 
-2048 1:0 2:0 3:8 4:19.448 5:1 6:14.2753 7:47.8883 8:4.6297 9:10.8441 10:22.6528 11:14.6013 
-815.7552886994929 1:0 2:1 3:7 4:9.159 5:0 6:0 7:75.8393 8:10.8441 9:22.6528 10:14.6013 11:14.2753 
-73.72798881157526 1:0 2:0 3:8 4:34.41 5:2 6:58.9791 7:0.5355 8:49.3078 9:0 10:0 11:0.5084 
-600.9137257573764 1:0 2:0 3:8 4:5.291 5:2 6:17.4961 7:13.0939 8:28.2353 9:26.7202 10:37.3053 11:21.3418 
-426.7219809503646 1:0 2:0 3:12 4:3.87 5:6 6:208.2055 7:1.0616 8:0 9:0 10:0.866 11:15.8086 
-171.5176376623575 1:0 2:0 3:12 4:3.87 5:5 6:159.9049 7:1.0616 8:0 9:0 10:0.866 11:15.8086 
